<?xml version="1.0" encoding="UTF-8" standalone="yes"?>
<PMML xmlns="http://www.dmg.org/PMML-4_4" xmlns:data="http://jpmml.org/jpmml-model/InlineTable" version="4.4">
	<Header>
		<Application name="SkLearn2PMML package" version="0.90.4"/>
		<Timestamp>2023-06-07T10:33:33Z</Timestamp>
	</Header>
	<MiningBuildTask>
		<Extension name="repr">PMMLPipeline(steps=[('ExtraTrees', ExtraTreesClassifier(max_depth=4))])</Extension>
	</MiningBuildTask>
	<DataDictionary>
		<DataField name="isFraud" optype="categorical" dataType="integer">
			<Value value="0"/>
			<Value value="1"/>
		</DataField>
		<DataField name="COS_V6_day_" optype="continuous" dataType="float"/>
		<DataField name="COS_V6_month_" optype="continuous" dataType="float"/>
		<DataField name="COS_V7_month_" optype="continuous" dataType="float"/>
		<DataField name="COS_V8_day_" optype="continuous" dataType="float"/>
		<DataField name="COS_V8_month_" optype="continuous" dataType="float"/>
		<DataField name="COS_V23_month_" optype="continuous" dataType="float"/>
		<DataField name="SIN_V6_day_" optype="continuous" dataType="float"/>
		<DataField name="SIN_V6_month_" optype="continuous" dataType="float"/>
		<DataField name="SIN_V7_month_" optype="continuous" dataType="float"/>
		<DataField name="SIN_V8_day_" optype="continuous" dataType="float"/>
		<DataField name="SIN_V8_month_" optype="continuous" dataType="float"/>
		<DataField name="SIN_V23_day_" optype="continuous" dataType="float"/>
		<DataField name="SIN_V23_month_" optype="continuous" dataType="float"/>
		<DataField name="V1" optype="continuous" dataType="float"/>
		<DataField name="V2" optype="continuous" dataType="float"/>
		<DataField name="V3" optype="continuous" dataType="float"/>
		<DataField name="V4" optype="continuous" dataType="float"/>
		<DataField name="V9" optype="continuous" dataType="float"/>
		<DataField name="V10" optype="continuous" dataType="float"/>
		<DataField name="V12" optype="continuous" dataType="float"/>
		<DataField name="V13" optype="continuous" dataType="float"/>
		<DataField name="V16" optype="continuous" dataType="float"/>
		<DataField name="V19" optype="continuous" dataType="float"/>
		<DataField name="V21" optype="continuous" dataType="float"/>
		<DataField name="V22" optype="continuous" dataType="float"/>
		<DataField name="V24" optype="continuous" dataType="float"/>
		<DataField name="V25" optype="continuous" dataType="float"/>
		<DataField name="V26" optype="continuous" dataType="float"/>
		<DataField name="V27" optype="continuous" dataType="float"/>
		<DataField name="V6_year" optype="continuous" dataType="float"/>
		<DataField name="V7_year" optype="continuous" dataType="float"/>
		<DataField name="V8_year" optype="continuous" dataType="float"/>
		<DataField name="V23_year" optype="continuous" dataType="float"/>
	</DataDictionary>
	<MiningModel functionName="classification" algorithmName="sklearn.ensemble._forest.ExtraTreesClassifier">
		<MiningSchema>
			<MiningField name="isFraud" usageType="target"/>
			<MiningField name="COS_V23_month_"/>
			<MiningField name="SIN_V6_day_"/>
			<MiningField name="V10"/>
			<MiningField name="V1"/>
			<MiningField name="V13"/>
			<MiningField name="V2"/>
			<MiningField name="V9"/>
			<MiningField name="V7_year"/>
			<MiningField name="V21"/>
			<MiningField name="V16"/>
			<MiningField name="V3"/>
			<MiningField name="COS_V6_day_"/>
			<MiningField name="V25"/>
			<MiningField name="V22"/>
			<MiningField name="V8_year"/>
			<MiningField name="V6_year"/>
			<MiningField name="V4"/>
			<MiningField name="V26"/>
			<MiningField name="V23_year"/>
			<MiningField name="V19"/>
			<MiningField name="SIN_V6_month_"/>
			<MiningField name="COS_V6_month_"/>
			<MiningField name="V24"/>
			<MiningField name="V27"/>
			<MiningField name="SIN_V8_day_"/>
			<MiningField name="COS_V8_day_"/>
			<MiningField name="COS_V7_month_"/>
			<MiningField name="SIN_V8_month_"/>
			<MiningField name="V12"/>
			<MiningField name="SIN_V7_month_"/>
			<MiningField name="SIN_V23_month_"/>
			<MiningField name="COS_V8_month_"/>
			<MiningField name="SIN_V23_day_"/>
		</MiningSchema>
		<Output>
			<OutputField name="probability(0)" optype="continuous" dataType="double" feature="probability" value="0"/>
			<OutputField name="probability(1)" optype="continuous" dataType="double" feature="probability" value="1"/>
		</Output>
		<LocalTransformations>
			<DerivedField name="double(SIN_V6_day_)" optype="continuous" dataType="double">
				<FieldRef field="SIN_V6_day_"/>
			</DerivedField>
			<DerivedField name="double(V10)" optype="continuous" dataType="double">
				<FieldRef field="V10"/>
			</DerivedField>
			<DerivedField name="double(V1)" optype="continuous" dataType="double">
				<FieldRef field="V1"/>
			</DerivedField>
			<DerivedField name="double(V13)" optype="continuous" dataType="double">
				<FieldRef field="V13"/>
			</DerivedField>
			<DerivedField name="double(V2)" optype="continuous" dataType="double">
				<FieldRef field="V2"/>
			</DerivedField>
			<DerivedField name="double(V9)" optype="continuous" dataType="double">
				<FieldRef field="V9"/>
			</DerivedField>
			<DerivedField name="double(V7_year)" optype="continuous" dataType="double">
				<FieldRef field="V7_year"/>
			</DerivedField>
			<DerivedField name="double(V21)" optype="continuous" dataType="double">
				<FieldRef field="V21"/>
			</DerivedField>
			<DerivedField name="double(V16)" optype="continuous" dataType="double">
				<FieldRef field="V16"/>
			</DerivedField>
			<DerivedField name="double(V3)" optype="continuous" dataType="double">
				<FieldRef field="V3"/>
			</DerivedField>
			<DerivedField name="double(COS_V6_day_)" optype="continuous" dataType="double">
				<FieldRef field="COS_V6_day_"/>
			</DerivedField>
			<DerivedField name="double(V25)" optype="continuous" dataType="double">
				<FieldRef field="V25"/>
			</DerivedField>
			<DerivedField name="double(V22)" optype="continuous" dataType="double">
				<FieldRef field="V22"/>
			</DerivedField>
			<DerivedField name="double(V8_year)" optype="continuous" dataType="double">
				<FieldRef field="V8_year"/>
			</DerivedField>
			<DerivedField name="double(V6_year)" optype="continuous" dataType="double">
				<FieldRef field="V6_year"/>
			</DerivedField>
			<DerivedField name="double(V4)" optype="continuous" dataType="double">
				<FieldRef field="V4"/>
			</DerivedField>
			<DerivedField name="double(V26)" optype="continuous" dataType="double">
				<FieldRef field="V26"/>
			</DerivedField>
			<DerivedField name="double(V23_year)" optype="continuous" dataType="double">
				<FieldRef field="V23_year"/>
			</DerivedField>
			<DerivedField name="double(V19)" optype="continuous" dataType="double">
				<FieldRef field="V19"/>
			</DerivedField>
			<DerivedField name="double(SIN_V6_month_)" optype="continuous" dataType="double">
				<FieldRef field="SIN_V6_month_"/>
			</DerivedField>
			<DerivedField name="double(COS_V6_month_)" optype="continuous" dataType="double">
				<FieldRef field="COS_V6_month_"/>
			</DerivedField>
			<DerivedField name="double(V24)" optype="continuous" dataType="double">
				<FieldRef field="V24"/>
			</DerivedField>
			<DerivedField name="double(V27)" optype="continuous" dataType="double">
				<FieldRef field="V27"/>
			</DerivedField>
			<DerivedField name="double(SIN_V8_day_)" optype="continuous" dataType="double">
				<FieldRef field="SIN_V8_day_"/>
			</DerivedField>
			<DerivedField name="double(COS_V8_day_)" optype="continuous" dataType="double">
				<FieldRef field="COS_V8_day_"/>
			</DerivedField>
			<DerivedField name="double(COS_V7_month_)" optype="continuous" dataType="double">
				<FieldRef field="COS_V7_month_"/>
			</DerivedField>
			<DerivedField name="double(SIN_V8_month_)" optype="continuous" dataType="double">
				<FieldRef field="SIN_V8_month_"/>
			</DerivedField>
			<DerivedField name="double(V12)" optype="continuous" dataType="double">
				<FieldRef field="V12"/>
			</DerivedField>
			<DerivedField name="double(SIN_V7_month_)" optype="continuous" dataType="double">
				<FieldRef field="SIN_V7_month_"/>
			</DerivedField>
			<DerivedField name="double(SIN_V23_month_)" optype="continuous" dataType="double">
				<FieldRef field="SIN_V23_month_"/>
			</DerivedField>
			<DerivedField name="double(COS_V8_month_)" optype="continuous" dataType="double">
				<FieldRef field="COS_V8_month_"/>
			</DerivedField>
			<DerivedField name="double(SIN_V23_day_)" optype="continuous" dataType="double">
				<FieldRef field="SIN_V23_day_"/>
			</DerivedField>
		</LocalTransformations>
		<Segmentation multipleModelMethod="average" missingPredictionTreatment="returnMissing">
			<Segment id="1">
				<True/>
				<TreeModel functionName="classification" missingValueStrategy="nullPrediction">
					<MiningSchema>
						<MiningField name="double(SIN_V6_day_)"/>
						<MiningField name="double(V10)"/>
						<MiningField name="double(V1)"/>
						<MiningField name="double(V13)"/>
						<MiningField name="double(V2)"/>
						<MiningField name="double(V9)"/>
						<MiningField name="double(V7_year)"/>
						<MiningField name="double(V21)"/>
						<MiningField name="double(V16)"/>
						<MiningField name="double(V3)"/>
					</MiningSchema>
					<Node>
						<True/>
						<Node>
							<SimplePredicate field="double(SIN_V6_day_)" operator="lessOrEqual" value="-0.020524293487077183"/>
							<Node>
								<SimplePredicate field="double(V10)" operator="lessOrEqual" value="-0.34106385740867795"/>
								<Node>
									<SimplePredicate field="double(V1)" operator="lessOrEqual" value="-0.5287238842102142"/>
									<Node score="1" recordCount="1371">
										<SimplePredicate field="double(V1)" operator="lessOrEqual" value="-1.876540429032215"/>
										<ScoreDistribution value="0" recordCount="9"/>
										<ScoreDistribution value="1" recordCount="1362"/>
									</Node>
									<Node score="1" recordCount="12347">
										<True/>
										<ScoreDistribution value="0" recordCount="1812"/>
										<ScoreDistribution value="1" recordCount="10535"/>
									</Node>
								</Node>
								<Node score="1" recordCount="289">
									<SimplePredicate field="double(V13)" operator="lessOrEqual" value="-4.4218548050740765"/>
									<ScoreDistribution value="0" recordCount="0"/>
									<ScoreDistribution value="1" recordCount="289"/>
								</Node>
								<Node score="0" recordCount="23206">
									<True/>
									<ScoreDistribution value="0" recordCount="13838"/>
									<ScoreDistribution value="1" recordCount="9368"/>
								</Node>
							</Node>
							<Node>
								<SimplePredicate field="double(V2)" operator="lessOrEqual" value="-1.598621313352628"/>
								<Node score="1" recordCount="1814">
									<SimplePredicate field="double(V9)" operator="lessOrEqual" value="-1.138623948633974"/>
									<ScoreDistribution value="0" recordCount="0"/>
									<ScoreDistribution value="1" recordCount="1814"/>
								</Node>
								<Node score="1" recordCount="1827">
									<True/>
									<ScoreDistribution value="0" recordCount="2"/>
									<ScoreDistribution value="1" recordCount="1825"/>
								</Node>
							</Node>
							<Node score="0" recordCount="46869">
								<SimplePredicate field="double(V7_year)" operator="lessOrEqual" value="1.7620264968814467"/>
								<ScoreDistribution value="0" recordCount="30035"/>
								<ScoreDistribution value="1" recordCount="16834"/>
							</Node>
							<Node score="0" recordCount="565">
								<True/>
								<ScoreDistribution value="0" recordCount="527"/>
								<ScoreDistribution value="1" recordCount="38"/>
							</Node>
						</Node>
						<Node>
							<SimplePredicate field="double(V1)" operator="lessOrEqual" value="-1.3002662809233543"/>
							<Node>
								<SimplePredicate field="double(V10)" operator="lessOrEqual" value="1.228194777975021"/>
								<Node score="1" recordCount="3466">
									<SimplePredicate field="double(V21)" operator="lessOrEqual" value="1.802491733016999"/>
									<ScoreDistribution value="0" recordCount="48"/>
									<ScoreDistribution value="1" recordCount="3418"/>
								</Node>
								<Node score="1" recordCount="261">
									<True/>
									<ScoreDistribution value="0" recordCount="0"/>
									<ScoreDistribution value="1" recordCount="261"/>
								</Node>
							</Node>
							<Node score="1" recordCount="274">
								<True/>
								<ScoreDistribution value="0" recordCount="0"/>
								<ScoreDistribution value="1" recordCount="274"/>
							</Node>
						</Node>
						<Node>
							<SimplePredicate field="double(V16)" operator="lessOrEqual" value="0.10945162388523721"/>
							<Node score="1" recordCount="274">
								<SimplePredicate field="double(V9)" operator="lessOrEqual" value="0.18616647767451444"/>
								<ScoreDistribution value="0" recordCount="35"/>
								<ScoreDistribution value="1" recordCount="239"/>
							</Node>
							<Node score="1" recordCount="178">
								<True/>
								<ScoreDistribution value="0" recordCount="49"/>
								<ScoreDistribution value="1" recordCount="129"/>
							</Node>
						</Node>
						<Node score="1" recordCount="1480">
							<SimplePredicate field="double(V3)" operator="lessOrEqual" value="12.894911974519616"/>
							<ScoreDistribution value="0" recordCount="714"/>
							<ScoreDistribution value="1" recordCount="766"/>
						</Node>
						<Node score="1" recordCount="17">
							<True/>
							<ScoreDistribution value="0" recordCount="0"/>
							<ScoreDistribution value="1" recordCount="17"/>
						</Node>
					</Node>
				</TreeModel>
			</Segment>
			<Segment id="2">
				<True/>
				<TreeModel functionName="classification" missingValueStrategy="nullPrediction">
					<MiningSchema>
						<MiningField name="double(V1)"/>
						<MiningField name="double(V21)"/>
						<MiningField name="double(COS_V6_day_)"/>
						<MiningField name="double(V25)"/>
						<MiningField name="double(V22)"/>
						<MiningField name="double(V8_year)"/>
					</MiningSchema>
					<Node>
						<True/>
						<Node>
							<SimplePredicate field="double(V21)" operator="lessOrEqual" value="0.7506197687078431"/>
							<Node score="1" recordCount="775">
								<SimplePredicate field="double(V21)" operator="lessOrEqual" value="-1.9280369081493578"/>
								<ScoreDistribution value="0" recordCount="0"/>
								<ScoreDistribution value="1" recordCount="775"/>
							</Node>
							<Node>
								<SimplePredicate field="double(COS_V6_day_)" operator="lessOrEqual" value="1.1391077728623686"/>
								<Node score="1" recordCount="20323">
									<SimplePredicate field="double(V1)" operator="lessOrEqual" value="0.5374883975950668"/>
									<ScoreDistribution value="0" recordCount="1814"/>
									<ScoreDistribution value="1" recordCount="18509"/>
								</Node>
								<Node score="0" recordCount="64466">
									<True/>
									<ScoreDistribution value="0" recordCount="44387"/>
									<ScoreDistribution value="1" recordCount="20079"/>
								</Node>
							</Node>
							<Node score="1" recordCount="5247">
								<SimplePredicate field="double(V25)" operator="lessOrEqual" value="6.164239047581326"/>
								<ScoreDistribution value="0" recordCount="828"/>
								<ScoreDistribution value="1" recordCount="4419"/>
							</Node>
							<Node score="1" recordCount="83">
								<True/>
								<ScoreDistribution value="0" recordCount="0"/>
								<ScoreDistribution value="1" recordCount="83"/>
							</Node>
						</Node>
						<Node score="1" recordCount="1084">
							<SimplePredicate field="double(V22)" operator="lessOrEqual" value="-0.7328698150379555"/>
							<ScoreDistribution value="0" recordCount="0"/>
							<ScoreDistribution value="1" recordCount="1084"/>
						</Node>
						<Node>
							<SimplePredicate field="double(V21)" operator="lessOrEqual" value="1.6568316602859738"/>
							<Node score="1" recordCount="266">
								<SimplePredicate field="double(V8_year)" operator="lessOrEqual" value="1.4031413993189175"/>
								<ScoreDistribution value="0" recordCount="25"/>
								<ScoreDistribution value="1" recordCount="241"/>
							</Node>
							<Node score="1" recordCount="91">
								<True/>
								<ScoreDistribution value="0" recordCount="6"/>
								<ScoreDistribution value="1" recordCount="85"/>
							</Node>
						</Node>
						<Node score="1" recordCount="1303">
							<SimplePredicate field="double(V8_year)" operator="lessOrEqual" value="1.0801763163038123"/>
							<ScoreDistribution value="0" recordCount="0"/>
							<ScoreDistribution value="1" recordCount="1303"/>
						</Node>
						<Node score="1" recordCount="600">
							<True/>
							<ScoreDistribution value="0" recordCount="9"/>
							<ScoreDistribution value="1" recordCount="591"/>
						</Node>
					</Node>
				</TreeModel>
			</Segment>
			<Segment id="3">
				<True/>
				<TreeModel functionName="classification" missingValueStrategy="nullPrediction">
					<MiningSchema>
						<MiningField name="double(SIN_V6_day_)"/>
						<MiningField name="double(V1)"/>
						<MiningField name="double(V2)"/>
						<MiningField name="double(V7_year)"/>
						<MiningField name="double(V21)"/>
						<MiningField name="double(COS_V6_day_)"/>
						<MiningField name="double(V22)"/>
						<MiningField name="double(V6_year)"/>
						<MiningField name="double(V4)"/>
						<MiningField name="double(V26)"/>
						<MiningField name="double(V23_year)"/>
					</MiningSchema>
					<Node>
						<True/>
						<Node>
							<SimplePredicate field="double(V22)" operator="lessOrEqual" value="2.0935935721566614"/>
							<Node>
								<SimplePredicate field="double(COS_V6_day_)" operator="lessOrEqual" value="1.6634975480622436"/>
								<Node>
									<SimplePredicate field="double(V1)" operator="lessOrEqual" value="0.1509982104593557"/>
									<Node score="1" recordCount="11776">
										<SimplePredicate field="double(V6_year)" operator="lessOrEqual" value="-0.6546148900342343"/>
										<ScoreDistribution value="0" recordCount="0"/>
										<ScoreDistribution value="1" recordCount="11776"/>
									</Node>
									<Node score="1" recordCount="9675">
										<True/>
										<ScoreDistribution value="0" recordCount="1823"/>
										<ScoreDistribution value="1" recordCount="7852"/>
									</Node>
								</Node>
								<Node score="0" recordCount="64655">
									<SimplePredicate field="double(V1)" operator="lessOrEqual" value="0.6030643463241656"/>
									<ScoreDistribution value="0" recordCount="44387"/>
									<ScoreDistribution value="1" recordCount="20268"/>
								</Node>
								<Node score="1" recordCount="729">
									<True/>
									<ScoreDistribution value="0" recordCount="0"/>
									<ScoreDistribution value="1" recordCount="729"/>
								</Node>
							</Node>
							<Node score="1" recordCount="4650">
								<SimplePredicate field="double(V4)" operator="lessOrEqual" value="-0.021145061528371478"/>
								<ScoreDistribution value="0" recordCount="0"/>
								<ScoreDistribution value="1" recordCount="4650"/>
							</Node>
							<Node score="1" recordCount="112">
								<SimplePredicate field="double(V2)" operator="lessOrEqual" value="-0.12030160445443694"/>
								<ScoreDistribution value="0" recordCount="48"/>
								<ScoreDistribution value="1" recordCount="64"/>
							</Node>
							<Node score="0" recordCount="792">
								<True/>
								<ScoreDistribution value="0" recordCount="780"/>
								<ScoreDistribution value="1" recordCount="12"/>
							</Node>
						</Node>
						<Node>
							<SimplePredicate field="double(SIN_V6_day_)" operator="lessOrEqual" value="0.11645493705618154"/>
							<Node>
								<SimplePredicate field="double(V4)" operator="lessOrEqual" value="1.455210944521129"/>
								<Node score="1" recordCount="784">
									<SimplePredicate field="double(V21)" operator="lessOrEqual" value="2.067933906240997"/>
									<ScoreDistribution value="0" recordCount="6"/>
									<ScoreDistribution value="1" recordCount="778"/>
								</Node>
								<Node score="1" recordCount="657">
									<True/>
									<ScoreDistribution value="0" recordCount="0"/>
									<ScoreDistribution value="1" recordCount="657"/>
								</Node>
							</Node>
							<Node score="1" recordCount="5">
								<SimplePredicate field="double(V26)" operator="lessOrEqual" value="-0.7723246947150124"/>
								<ScoreDistribution value="0" recordCount="0"/>
								<ScoreDistribution value="1" recordCount="5"/>
							</Node>
							<Node score="0" recordCount="7">
								<True/>
								<ScoreDistribution value="0" recordCount="7"/>
								<ScoreDistribution value="1" recordCount="0"/>
							</Node>
						</Node>
						<Node score="1" recordCount="49">
							<SimplePredicate field="double(V7_year)" operator="lessOrEqual" value="0.9793308272486128"/>
							<ScoreDistribution value="0" recordCount="0"/>
							<ScoreDistribution value="1" recordCount="49"/>
						</Node>
						<Node score="1" recordCount="183">
							<SimplePredicate field="double(V23_year)" operator="lessOrEqual" value="1.4015977690126709"/>
							<ScoreDistribution value="0" recordCount="16"/>
							<ScoreDistribution value="1" recordCount="167"/>
						</Node>
						<Node score="1" recordCount="164">
							<True/>
							<ScoreDistribution value="0" recordCount="2"/>
							<ScoreDistribution value="1" recordCount="162"/>
						</Node>
					</Node>
				</TreeModel>
			</Segment>
			<Segment id="4">
				<True/>
				<TreeModel functionName="classification" missingValueStrategy="nullPrediction">
					<MiningSchema>
						<MiningField name="double(SIN_V6_day_)"/>
						<MiningField name="double(V10)"/>
						<MiningField name="double(V1)"/>
						<MiningField name="double(V13)"/>
						<MiningField name="double(V9)"/>
						<MiningField name="double(V7_year)"/>
						<MiningField name="double(V21)"/>
						<MiningField name="double(V4)"/>
						<MiningField name="double(V23_year)"/>
					</MiningSchema>
					<Node>
						<True/>
						<Node>
							<SimplePredicate field="double(V10)" operator="lessOrEqual" value="0.7203539193486135"/>
							<Node>
								<SimplePredicate field="double(V21)" operator="lessOrEqual" value="0.9595699720468018"/>
								<Node score="1" recordCount="2226">
									<SimplePredicate field="double(V1)" operator="lessOrEqual" value="-2.28162623450534"/>
									<ScoreDistribution value="0" recordCount="0"/>
									<ScoreDistribution value="1" recordCount="2226"/>
								</Node>
								<Node score="1" recordCount="1101">
									<SimplePredicate field="double(V13)" operator="lessOrEqual" value="-3.191986658921051"/>
									<ScoreDistribution value="0" recordCount="0"/>
									<ScoreDistribution value="1" recordCount="1101"/>
								</Node>
								<Node score="0" recordCount="60945">
									<True/>
									<ScoreDistribution value="0" recordCount="31075"/>
									<ScoreDistribution value="1" recordCount="29870"/>
								</Node>
							</Node>
							<Node>
								<SimplePredicate field="double(V7_year)" operator="lessOrEqual" value="1.3888405992699635"/>
								<Node score="1" recordCount="1466">
									<SimplePredicate field="double(V7_year)" operator="lessOrEqual" value="-0.21554764151386951"/>
									<ScoreDistribution value="0" recordCount="0"/>
									<ScoreDistribution value="1" recordCount="1466"/>
								</Node>
								<Node score="1" recordCount="770">
									<True/>
									<ScoreDistribution value="0" recordCount="17"/>
									<ScoreDistribution value="1" recordCount="753"/>
								</Node>
							</Node>
							<Node score="1" recordCount="398">
								<SimplePredicate field="double(V13)" operator="lessOrEqual" value="0.06013637989035647"/>
								<ScoreDistribution value="0" recordCount="1"/>
								<ScoreDistribution value="1" recordCount="397"/>
							</Node>
							<Node score="1" recordCount="28">
								<True/>
								<ScoreDistribution value="0" recordCount="9"/>
								<ScoreDistribution value="1" recordCount="19"/>
							</Node>
						</Node>
						<Node>
							<SimplePredicate field="double(SIN_V6_day_)" operator="lessOrEqual" value="1.7258550169780915"/>
							<Node>
								<SimplePredicate field="double(V9)" operator="lessOrEqual" value="1.107959421456456"/>
								<Node score="0" recordCount="19729">
									<SimplePredicate field="double(V21)" operator="lessOrEqual" value="2.073592160088837"/>
									<ScoreDistribution value="0" recordCount="11840"/>
									<ScoreDistribution value="1" recordCount="7889"/>
								</Node>
								<Node score="1" recordCount="482">
									<True/>
									<ScoreDistribution value="0" recordCount="0"/>
									<ScoreDistribution value="1" recordCount="482"/>
								</Node>
							</Node>
							<Node score="0" recordCount="3818">
								<SimplePredicate field="double(V23_year)" operator="lessOrEqual" value="-0.1772044443718942"/>
								<ScoreDistribution value="0" recordCount="2156"/>
								<ScoreDistribution value="1" recordCount="1662"/>
							</Node>
							<Node score="0" recordCount="2170">
								<True/>
								<ScoreDistribution value="0" recordCount="1685"/>
								<ScoreDistribution value="1" recordCount="485"/>
							</Node>
						</Node>
						<Node score="1" recordCount="819">
							<SimplePredicate field="double(V4)" operator="lessOrEqual" value="1.9260746489608493"/>
							<ScoreDistribution value="0" recordCount="0"/>
							<ScoreDistribution value="1" recordCount="819"/>
						</Node>
						<Node score="0" recordCount="286">
							<True/>
							<ScoreDistribution value="0" recordCount="286"/>
							<ScoreDistribution value="1" recordCount="0"/>
						</Node>
					</Node>
				</TreeModel>
			</Segment>
			<Segment id="5">
				<True/>
				<TreeModel functionName="classification" missingValueStrategy="nullPrediction">
					<MiningSchema>
						<MiningField name="double(V10)"/>
						<MiningField name="double(V1)"/>
						<MiningField name="double(V9)"/>
						<MiningField name="double(V21)"/>
						<MiningField name="double(COS_V6_day_)"/>
						<MiningField name="double(V26)"/>
						<MiningField name="double(V19)"/>
						<MiningField name="double(SIN_V6_month_)"/>
						<MiningField name="double(COS_V6_month_)"/>
					</MiningSchema>
					<Node>
						<True/>
						<Node>
							<SimplePredicate field="double(V9)" operator="lessOrEqual" value="-0.9264889306305466"/>
							<Node score="1" recordCount="1386">
								<SimplePredicate field="double(V26)" operator="lessOrEqual" value="-1.2954579846191723"/>
								<ScoreDistribution value="0" recordCount="0"/>
								<ScoreDistribution value="1" recordCount="1386"/>
							</Node>
							<Node>
								<SimplePredicate field="double(V9)" operator="lessOrEqual" value="-1.3451059156285896"/>
								<Node score="1" recordCount="593">
									<SimplePredicate field="double(V19)" operator="lessOrEqual" value="-0.12863738909004363"/>
									<ScoreDistribution value="0" recordCount="238"/>
									<ScoreDistribution value="1" recordCount="355"/>
								</Node>
								<Node score="1" recordCount="2486">
									<True/>
									<ScoreDistribution value="0" recordCount="128"/>
									<ScoreDistribution value="1" recordCount="2358"/>
								</Node>
							</Node>
							<Node score="1" recordCount="9914">
								<SimplePredicate field="double(V1)" operator="lessOrEqual" value="-0.15466500870029387"/>
								<ScoreDistribution value="0" recordCount="1317"/>
								<ScoreDistribution value="1" recordCount="8597"/>
							</Node>
							<Node score="0" recordCount="9306">
								<True/>
								<ScoreDistribution value="0" recordCount="5720"/>
								<ScoreDistribution value="1" recordCount="3586"/>
							</Node>
						</Node>
						<Node>
							<SimplePredicate field="double(COS_V6_day_)" operator="lessOrEqual" value="-0.1095697442363602"/>
							<Node>
								<SimplePredicate field="double(V1)" operator="lessOrEqual" value="-0.4176965767503813"/>
								<Node score="1" recordCount="6870">
									<SimplePredicate field="double(V10)" operator="lessOrEqual" value="0.524576147470557"/>
									<ScoreDistribution value="0" recordCount="480"/>
									<ScoreDistribution value="1" recordCount="6390"/>
								</Node>
								<Node score="1" recordCount="2098">
									<True/>
									<ScoreDistribution value="0" recordCount="0"/>
									<ScoreDistribution value="1" recordCount="2098"/>
								</Node>
							</Node>
							<Node score="0" recordCount="42741">
								<SimplePredicate field="double(SIN_V6_month_)" operator="lessOrEqual" value="1.0244299144730342"/>
								<ScoreDistribution value="0" recordCount="27342"/>
								<ScoreDistribution value="1" recordCount="15399"/>
							</Node>
							<Node score="0" recordCount="15708">
								<True/>
								<ScoreDistribution value="0" recordCount="11125"/>
								<ScoreDistribution value="1" recordCount="4583"/>
							</Node>
						</Node>
						<Node>
							<SimplePredicate field="double(COS_V6_month_)" operator="lessOrEqual" value="-0.6731931689638876"/>
							<Node score="1" recordCount="1532">
								<SimplePredicate field="double(V21)" operator="lessOrEqual" value="0.11876018270306998"/>
								<ScoreDistribution value="0" recordCount="338"/>
								<ScoreDistribution value="1" recordCount="1194"/>
							</Node>
							<Node score="1" recordCount="194">
								<True/>
								<ScoreDistribution value="0" recordCount="16"/>
								<ScoreDistribution value="1" recordCount="178"/>
							</Node>
						</Node>
						<Node score="0" recordCount="210">
							<SimplePredicate field="double(V19)" operator="lessOrEqual" value="-0.7178878139841872"/>
							<ScoreDistribution value="0" recordCount="112"/>
							<ScoreDistribution value="1" recordCount="98"/>
						</Node>
						<Node score="1" recordCount="1200">
							<True/>
							<ScoreDistribution value="0" recordCount="253"/>
							<ScoreDistribution value="1" recordCount="947"/>
						</Node>
					</Node>
				</TreeModel>
			</Segment>
			<Segment id="6">
				<True/>
				<TreeModel functionName="classification" missingValueStrategy="nullPrediction">
					<MiningSchema>
						<MiningField name="double(V13)"/>
						<MiningField name="double(V2)"/>
						<MiningField name="double(V7_year)"/>
						<MiningField name="double(COS_V6_day_)"/>
						<MiningField name="double(COS_V6_month_)"/>
						<MiningField name="double(V24)"/>
					</MiningSchema>
					<Node>
						<True/>
						<Node score="1" recordCount="3960">
							<SimplePredicate field="double(V13)" operator="lessOrEqual" value="-0.3126658112506533"/>
							<ScoreDistribution value="0" recordCount="0"/>
							<ScoreDistribution value="1" recordCount="3960"/>
						</Node>
						<Node>
							<SimplePredicate field="double(V24)" operator="lessOrEqual" value="-1.0872682974107764"/>
							<Node>
								<SimplePredicate field="double(V2)" operator="lessOrEqual" value="0.1527796448608587"/>
								<Node score="1" recordCount="7909">
									<SimplePredicate field="double(COS_V6_day_)" operator="lessOrEqual" value="3.088592845328686"/>
									<ScoreDistribution value="0" recordCount="979"/>
									<ScoreDistribution value="1" recordCount="6930"/>
								</Node>
								<Node score="1" recordCount="1569">
									<True/>
									<ScoreDistribution value="0" recordCount="12"/>
									<ScoreDistribution value="1" recordCount="1557"/>
								</Node>
							</Node>
							<Node score="0" recordCount="4451">
								<SimplePredicate field="double(V7_year)" operator="lessOrEqual" value="0.06862179454244122"/>
								<ScoreDistribution value="0" recordCount="2589"/>
								<ScoreDistribution value="1" recordCount="1862"/>
							</Node>
							<Node score="0" recordCount="1946">
								<True/>
								<ScoreDistribution value="0" recordCount="1371"/>
								<ScoreDistribution value="1" recordCount="575"/>
							</Node>
						</Node>
						<Node>
							<SimplePredicate field="double(V13)" operator="lessOrEqual" value="1.0991310471667721"/>
							<Node score="0" recordCount="30338">
								<SimplePredicate field="double(COS_V6_month_)" operator="lessOrEqual" value="-0.3356151334951758"/>
								<ScoreDistribution value="0" recordCount="17219"/>
								<ScoreDistribution value="1" recordCount="13119"/>
							</Node>
							<Node score="0" recordCount="41444">
								<True/>
								<ScoreDistribution value="0" recordCount="24899"/>
								<ScoreDistribution value="1" recordCount="16545"/>
							</Node>
						</Node>
						<Node score="1" recordCount="2621">
							<True/>
							<ScoreDistribution value="0" recordCount="0"/>
							<ScoreDistribution value="1" recordCount="2621"/>
						</Node>
					</Node>
				</TreeModel>
			</Segment>
			<Segment id="7">
				<True/>
				<TreeModel functionName="classification" missingValueStrategy="nullPrediction">
					<MiningSchema>
						<MiningField name="double(SIN_V6_day_)"/>
						<MiningField name="double(V10)"/>
						<MiningField name="double(V1)"/>
						<MiningField name="double(V21)"/>
						<MiningField name="double(V3)"/>
						<MiningField name="double(V8_year)"/>
						<MiningField name="double(V6_year)"/>
						<MiningField name="double(V23_year)"/>
						<MiningField name="double(V24)"/>
						<MiningField name="double(V27)"/>
					</MiningSchema>
					<Node>
						<True/>
						<Node>
							<SimplePredicate field="double(SIN_V6_day_)" operator="lessOrEqual" value="1.475766878707486"/>
							<Node>
								<SimplePredicate field="double(V21)" operator="lessOrEqual" value="3.2898235821609676"/>
								<Node>
									<SimplePredicate field="double(V27)" operator="lessOrEqual" value="-2.1320109853955405"/>
									<Node score="1" recordCount="746">
										<SimplePredicate field="double(V24)" operator="lessOrEqual" value="-0.42885505754465314"/>
										<ScoreDistribution value="0" recordCount="9"/>
										<ScoreDistribution value="1" recordCount="737"/>
									</Node>
									<Node score="1" recordCount="737">
										<True/>
										<ScoreDistribution value="0" recordCount="0"/>
										<ScoreDistribution value="1" recordCount="737"/>
									</Node>
								</Node>
								<Node score="0" recordCount="59924">
									<SimplePredicate field="double(V23_year)" operator="lessOrEqual" value="1.1414692111749272"/>
									<ScoreDistribution value="0" recordCount="31521"/>
									<ScoreDistribution value="1" recordCount="28403"/>
								</Node>
								<Node score="0" recordCount="24247">
									<True/>
									<ScoreDistribution value="0" recordCount="14693"/>
									<ScoreDistribution value="1" recordCount="9554"/>
								</Node>
							</Node>
							<Node score="1" recordCount="2634">
								<True/>
								<ScoreDistribution value="0" recordCount="0"/>
								<ScoreDistribution value="1" recordCount="2634"/>
							</Node>
						</Node>
						<Node>
							<SimplePredicate field="double(V6_year)" operator="lessOrEqual" value="-0.16145251009826067"/>
							<Node>
								<SimplePredicate field="double(V24)" operator="lessOrEqual" value="-0.8617647650473159"/>
								<Node score="1" recordCount="281">
									<SimplePredicate field="double(V8_year)" operator="lessOrEqual" value="-0.783498419138858"/>
									<ScoreDistribution value="0" recordCount="1"/>
									<ScoreDistribution value="1" recordCount="280"/>
								</Node>
								<Node score="1" recordCount="497">
									<True/>
									<ScoreDistribution value="0" recordCount="17"/>
									<ScoreDistribution value="1" recordCount="480"/>
								</Node>
							</Node>
							<Node score="1" recordCount="323">
								<SimplePredicate field="double(V10)" operator="lessOrEqual" value="-0.3009505957050693"/>
								<ScoreDistribution value="0" recordCount="19"/>
								<ScoreDistribution value="1" recordCount="304"/>
							</Node>
							<Node score="1" recordCount="218">
								<True/>
								<ScoreDistribution value="0" recordCount="29"/>
								<ScoreDistribution value="1" recordCount="189"/>
							</Node>
						</Node>
						<Node>
							<SimplePredicate field="double(V1)" operator="lessOrEqual" value="-1.540785599311444"/>
							<Node score="1" recordCount="229">
								<SimplePredicate field="double(V1)" operator="lessOrEqual" value="-1.8625862791507215"/>
								<ScoreDistribution value="0" recordCount="0"/>
								<ScoreDistribution value="1" recordCount="229"/>
							</Node>
							<Node score="1" recordCount="2782">
								<True/>
								<ScoreDistribution value="0" recordCount="31"/>
								<ScoreDistribution value="1" recordCount="2751"/>
							</Node>
						</Node>
						<Node score="1" recordCount="1587">
							<SimplePredicate field="double(V3)" operator="lessOrEqual" value="6.560300894933015"/>
							<ScoreDistribution value="0" recordCount="749"/>
							<ScoreDistribution value="1" recordCount="838"/>
						</Node>
						<Node score="1" recordCount="33">
							<True/>
							<ScoreDistribution value="0" recordCount="0"/>
							<ScoreDistribution value="1" recordCount="33"/>
						</Node>
					</Node>
				</TreeModel>
			</Segment>
			<Segment id="8">
				<True/>
				<TreeModel functionName="classification" missingValueStrategy="nullPrediction">
					<MiningSchema>
						<MiningField name="double(V10)"/>
						<MiningField name="double(V21)"/>
						<MiningField name="double(COS_V6_day_)"/>
						<MiningField name="double(V22)"/>
						<MiningField name="double(V8_year)"/>
						<MiningField name="double(V26)"/>
					</MiningSchema>
					<Node>
						<True/>
						<Node>
							<SimplePredicate field="double(COS_V6_day_)" operator="lessOrEqual" value="0.5220622485604577"/>
							<Node>
								<SimplePredicate field="double(V26)" operator="lessOrEqual" value="3.4185241596304747"/>
								<Node>
									<SimplePredicate field="double(V10)" operator="lessOrEqual" value="-1.1840657771281162"/>
									<Node score="1" recordCount="6962">
										<SimplePredicate field="double(V10)" operator="lessOrEqual" value="-1.3202510435575356"/>
										<ScoreDistribution value="0" recordCount="153"/>
										<ScoreDistribution value="1" recordCount="6809"/>
									</Node>
									<Node score="1" recordCount="5521">
										<True/>
										<ScoreDistribution value="0" recordCount="2423"/>
										<ScoreDistribution value="1" recordCount="3098"/>
									</Node>
								</Node>
								<Node score="0" recordCount="72173">
									<SimplePredicate field="double(V22)" operator="lessOrEqual" value="3.00640287225252"/>
									<ScoreDistribution value="0" recordCount="43647"/>
									<ScoreDistribution value="1" recordCount="28526"/>
								</Node>
								<Node score="1" recordCount="1105">
									<True/>
									<ScoreDistribution value="0" recordCount="0"/>
									<ScoreDistribution value="1" recordCount="1105"/>
								</Node>
							</Node>
							<Node score="1" recordCount="2527">
								<True/>
								<ScoreDistribution value="0" recordCount="0"/>
								<ScoreDistribution value="1" recordCount="2527"/>
							</Node>
						</Node>
						<Node>
							<SimplePredicate field="double(V8_year)" operator="lessOrEqual" value="0.9000106652548467"/>
							<Node>
								<SimplePredicate field="double(V21)" operator="lessOrEqual" value="3.6213501841867473"/>
								<Node score="1" recordCount="1166">
									<SimplePredicate field="double(V26)" operator="lessOrEqual" value="0.6893762258490375"/>
									<ScoreDistribution value="0" recordCount="71"/>
									<ScoreDistribution value="1" recordCount="1095"/>
								</Node>
								<Node score="1" recordCount="185">
									<True/>
									<ScoreDistribution value="0" recordCount="0"/>
									<ScoreDistribution value="1" recordCount="185"/>
								</Node>
							</Node>
							<Node score="1" recordCount="59">
								<True/>
								<ScoreDistribution value="0" recordCount="0"/>
								<ScoreDistribution value="1" recordCount="59"/>
							</Node>
						</Node>
						<Node>
							<SimplePredicate field="double(V22)" operator="lessOrEqual" value="2.7845606120250044"/>
							<Node score="1" recordCount="3995">
								<SimplePredicate field="double(V26)" operator="lessOrEqual" value="1.4092769997110262"/>
								<ScoreDistribution value="0" recordCount="775"/>
								<ScoreDistribution value="1" recordCount="3220"/>
							</Node>
							<Node score="1" recordCount="423">
								<True/>
								<ScoreDistribution value="0" recordCount="0"/>
								<ScoreDistribution value="1" recordCount="423"/>
							</Node>
						</Node>
						<Node score="1" recordCount="122">
							<True/>
							<ScoreDistribution value="0" recordCount="0"/>
							<ScoreDistribution value="1" recordCount="122"/>
						</Node>
					</Node>
				</TreeModel>
			</Segment>
			<Segment id="9">
				<True/>
				<TreeModel functionName="classification" missingValueStrategy="nullPrediction">
					<MiningSchema>
						<MiningField name="double(SIN_V6_day_)"/>
						<MiningField name="double(V10)"/>
						<MiningField name="double(V1)"/>
						<MiningField name="double(V2)"/>
						<MiningField name="double(V21)"/>
						<MiningField name="double(V22)"/>
						<MiningField name="double(V26)"/>
						<MiningField name="double(V27)"/>
					</MiningSchema>
					<Node>
						<True/>
						<Node>
							<SimplePredicate field="double(SIN_V6_day_)" operator="lessOrEqual" value="2.995122302637106"/>
							<Node>
								<SimplePredicate field="double(V10)" operator="lessOrEqual" value="0.7768732237187392"/>
								<Node>
									<SimplePredicate field="double(V2)" operator="lessOrEqual" value="-0.8315092760040459"/>
									<Node score="1" recordCount="12959">
										<SimplePredicate field="double(V22)" operator="lessOrEqual" value="2.3102924866661487"/>
										<ScoreDistribution value="0" recordCount="1823"/>
										<ScoreDistribution value="1" recordCount="11136"/>
									</Node>
									<Node score="1" recordCount="525">
										<True/>
										<ScoreDistribution value="0" recordCount="0"/>
										<ScoreDistribution value="1" recordCount="525"/>
									</Node>
								</Node>
								<Node score="0" recordCount="48776">
									<SimplePredicate field="double(V26)" operator="lessOrEqual" value="3.4188463872899"/>
									<ScoreDistribution value="0" recordCount="29491"/>
									<ScoreDistribution value="1" recordCount="19285"/>
								</Node>
								<Node score="1" recordCount="1137">
									<True/>
									<ScoreDistribution value="0" recordCount="0"/>
									<ScoreDistribution value="1" recordCount="1137"/>
								</Node>
							</Node>
							<Node score="1" recordCount="2891">
								<SimplePredicate field="double(V1)" operator="lessOrEqual" value="-0.7216849081311791"/>
								<ScoreDistribution value="0" recordCount="0"/>
								<ScoreDistribution value="1" recordCount="2891"/>
							</Node>
							<Node score="0" recordCount="21985">
								<SimplePredicate field="double(V2)" operator="lessOrEqual" value="2.416338905959636"/>
								<ScoreDistribution value="0" recordCount="14909"/>
								<ScoreDistribution value="1" recordCount="7076"/>
							</Node>
							<Node score="1" recordCount="15">
								<True/>
								<ScoreDistribution value="0" recordCount="0"/>
								<ScoreDistribution value="1" recordCount="15"/>
							</Node>
						</Node>
						<Node>
							<SimplePredicate field="double(V21)" operator="lessOrEqual" value="2.8580859290316045"/>
							<Node>
								<SimplePredicate field="double(V1)" operator="lessOrEqual" value="-0.5429095561941009"/>
								<Node score="1" recordCount="3327">
									<SimplePredicate field="double(V27)" operator="lessOrEqual" value="1.1024154543425224"/>
									<ScoreDistribution value="0" recordCount="32"/>
									<ScoreDistribution value="1" recordCount="3295"/>
								</Node>
								<Node score="1" recordCount="437">
									<True/>
									<ScoreDistribution value="0" recordCount="16"/>
									<ScoreDistribution value="1" recordCount="421"/>
								</Node>
							</Node>
							<Node score="1" recordCount="334">
								<SimplePredicate field="double(V2)" operator="lessOrEqual" value="-1.9313150982612666"/>
								<ScoreDistribution value="0" recordCount="0"/>
								<ScoreDistribution value="1" recordCount="334"/>
							</Node>
							<Node score="0" recordCount="1522">
								<True/>
								<ScoreDistribution value="0" recordCount="798"/>
								<ScoreDistribution value="1" recordCount="724"/>
							</Node>
						</Node>
						<Node score="1" recordCount="330">
							<True/>
							<ScoreDistribution value="0" recordCount="0"/>
							<ScoreDistribution value="1" recordCount="330"/>
						</Node>
					</Node>
				</TreeModel>
			</Segment>
			<Segment id="10">
				<True/>
				<TreeModel functionName="classification" missingValueStrategy="nullPrediction">
					<MiningSchema>
						<MiningField name="double(V1)"/>
						<MiningField name="double(V2)"/>
						<MiningField name="double(COS_V6_day_)"/>
						<MiningField name="double(V22)"/>
						<MiningField name="double(V26)"/>
						<MiningField name="double(V27)"/>
						<MiningField name="double(SIN_V8_day_)"/>
					</MiningSchema>
					<Node>
						<True/>
						<Node>
							<SimplePredicate field="double(V22)" operator="lessOrEqual" value="1.5354585000850411"/>
							<Node>
								<SimplePredicate field="double(V26)" operator="lessOrEqual" value="0.9834766620466961"/>
								<Node>
									<SimplePredicate field="double(V1)" operator="lessOrEqual" value="-1.0243601550621182"/>
									<Node score="1" recordCount="6828">
										<SimplePredicate field="double(V27)" operator="lessOrEqual" value="0.111229912282786"/>
										<ScoreDistribution value="0" recordCount="999"/>
										<ScoreDistribution value="1" recordCount="5829"/>
									</Node>
									<Node score="1" recordCount="13520">
										<True/>
										<ScoreDistribution value="0" recordCount="872"/>
										<ScoreDistribution value="1" recordCount="12648"/>
									</Node>
								</Node>
								<Node score="1" recordCount="1391">
									<SimplePredicate field="double(V2)" operator="lessOrEqual" value="-1.0761866338660941"/>
									<ScoreDistribution value="0" recordCount="0"/>
									<ScoreDistribution value="1" recordCount="1391"/>
								</Node>
								<Node score="0" recordCount="64782">
									<True/>
									<ScoreDistribution value="0" recordCount="45167"/>
									<ScoreDistribution value="1" recordCount="19615"/>
								</Node>
							</Node>
							<Node score="1" recordCount="5868">
								<True/>
								<ScoreDistribution value="0" recordCount="0"/>
								<ScoreDistribution value="1" recordCount="5868"/>
							</Node>
						</Node>
						<Node>
							<SimplePredicate field="double(V27)" operator="lessOrEqual" value="-0.32227736066398016"/>
							<Node>
								<SimplePredicate field="double(COS_V6_day_)" operator="lessOrEqual" value="1.077783754882894"/>
								<Node score="1" recordCount="296">
									<SimplePredicate field="double(SIN_V8_day_)" operator="lessOrEqual" value="0.49413917973966104"/>
									<ScoreDistribution value="0" recordCount="1"/>
									<ScoreDistribution value="1" recordCount="295"/>
								</Node>
								<Node score="1" recordCount="244">
									<True/>
									<ScoreDistribution value="0" recordCount="12"/>
									<ScoreDistribution value="1" recordCount="232"/>
								</Node>
							</Node>
							<Node score="1" recordCount="224">
								<SimplePredicate field="double(V2)" operator="lessOrEqual" value="-1.449326482590879"/>
								<ScoreDistribution value="0" recordCount="0"/>
								<ScoreDistribution value="1" recordCount="224"/>
							</Node>
							<Node score="1" recordCount="40">
								<True/>
								<ScoreDistribution value="0" recordCount="18"/>
								<ScoreDistribution value="1" recordCount="22"/>
							</Node>
						</Node>
						<Node score="1" recordCount="1045">
							<True/>
							<ScoreDistribution value="0" recordCount="0"/>
							<ScoreDistribution value="1" recordCount="1045"/>
						</Node>
					</Node>
				</TreeModel>
			</Segment>
			<Segment id="11">
				<True/>
				<TreeModel functionName="classification" missingValueStrategy="nullPrediction">
					<MiningSchema>
						<MiningField name="double(V1)"/>
						<MiningField name="double(V9)"/>
						<MiningField name="double(COS_V6_day_)"/>
						<MiningField name="double(V25)"/>
						<MiningField name="double(V22)"/>
						<MiningField name="double(V6_year)"/>
						<MiningField name="double(V4)"/>
						<MiningField name="double(V19)"/>
						<MiningField name="double(SIN_V6_month_)"/>
						<MiningField name="double(V27)"/>
						<MiningField name="double(COS_V8_day_)"/>
					</MiningSchema>
					<Node>
						<True/>
						<Node>
							<SimplePredicate field="double(COS_V6_day_)" operator="lessOrEqual" value="3.620222587627651"/>
							<Node>
								<SimplePredicate field="double(V1)" operator="lessOrEqual" value="-0.28712910943043823"/>
								<Node>
									<SimplePredicate field="double(V9)" operator="lessOrEqual" value="-0.007243292300207482"/>
									<Node score="1" recordCount="5965">
										<SimplePredicate field="double(V27)" operator="lessOrEqual" value="-0.6106289071239197"/>
										<ScoreDistribution value="0" recordCount="994"/>
										<ScoreDistribution value="1" recordCount="4971"/>
									</Node>
									<Node score="1" recordCount="10465">
										<True/>
										<ScoreDistribution value="0" recordCount="829"/>
										<ScoreDistribution value="1" recordCount="9636"/>
									</Node>
								</Node>
								<Node score="1" recordCount="3531">
									<True/>
									<ScoreDistribution value="0" recordCount="0"/>
									<ScoreDistribution value="1" recordCount="3531"/>
								</Node>
							</Node>
							<Node>
								<SimplePredicate field="double(V1)" operator="lessOrEqual" value="1.2948605618724396"/>
								<Node score="1" recordCount="474">
									<SimplePredicate field="double(V25)" operator="lessOrEqual" value="-2.188963149540097"/>
									<ScoreDistribution value="0" recordCount="0"/>
									<ScoreDistribution value="1" recordCount="474"/>
								</Node>
								<Node score="0" recordCount="67118">
									<True/>
									<ScoreDistribution value="0" recordCount="44400"/>
									<ScoreDistribution value="1" recordCount="22718"/>
								</Node>
							</Node>
							<Node score="1" recordCount="735">
								<True/>
								<ScoreDistribution value="0" recordCount="0"/>
								<ScoreDistribution value="1" recordCount="735"/>
							</Node>
						</Node>
						<Node>
							<SimplePredicate field="double(V6_year)" operator="lessOrEqual" value="0.5498193762224337"/>
							<Node>
								<SimplePredicate field="double(V22)" operator="lessOrEqual" value="3.3480227432503105"/>
								<Node score="1" recordCount="1241">
									<SimplePredicate field="double(V4)" operator="lessOrEqual" value="5.087999436011993"/>
									<ScoreDistribution value="0" recordCount="0"/>
									<ScoreDistribution value="1" recordCount="1241"/>
								</Node>
								<Node score="0" recordCount="88">
									<True/>
									<ScoreDistribution value="0" recordCount="71"/>
									<ScoreDistribution value="1" recordCount="17"/>
								</Node>
							</Node>
							<Node score="1" recordCount="49">
								<True/>
								<ScoreDistribution value="0" recordCount="0"/>
								<ScoreDistribution value="1" recordCount="49"/>
							</Node>
						</Node>
						<Node>
							<SimplePredicate field="double(COS_V8_day_)" operator="lessOrEqual" value="0.37943523613550245"/>
							<Node score="1" recordCount="430">
								<SimplePredicate field="double(V19)" operator="lessOrEqual" value="0.05296950841871273"/>
								<ScoreDistribution value="0" recordCount="120"/>
								<ScoreDistribution value="1" recordCount="310"/>
							</Node>
							<Node score="1" recordCount="2390">
								<True/>
								<ScoreDistribution value="0" recordCount="392"/>
								<ScoreDistribution value="1" recordCount="1998"/>
							</Node>
						</Node>
						<Node score="1" recordCount="502">
							<SimplePredicate field="double(SIN_V6_month_)" operator="lessOrEqual" value="-1.0720152641421334"/>
							<ScoreDistribution value="0" recordCount="56"/>
							<ScoreDistribution value="1" recordCount="446"/>
						</Node>
						<Node score="1" recordCount="1250">
							<True/>
							<ScoreDistribution value="0" recordCount="207"/>
							<ScoreDistribution value="1" recordCount="1043"/>
						</Node>
					</Node>
				</TreeModel>
			</Segment>
			<Segment id="12">
				<True/>
				<TreeModel functionName="classification" missingValueStrategy="nullPrediction">
					<MiningSchema>
						<MiningField name="double(SIN_V6_day_)"/>
						<MiningField name="double(V13)"/>
						<MiningField name="double(V25)"/>
						<MiningField name="double(V22)"/>
						<MiningField name="double(V26)"/>
						<MiningField name="double(V24)"/>
					</MiningSchema>
					<Node>
						<True/>
						<Node score="1" recordCount="769">
							<SimplePredicate field="double(V25)" operator="lessOrEqual" value="-0.75951414245083"/>
							<ScoreDistribution value="0" recordCount="0"/>
							<ScoreDistribution value="1" recordCount="769"/>
						</Node>
						<Node>
							<SimplePredicate field="double(V24)" operator="lessOrEqual" value="-0.23807889107915292"/>
							<Node>
								<SimplePredicate field="double(SIN_V6_day_)" operator="lessOrEqual" value="3.8371791121819987"/>
								<Node score="1" recordCount="12999">
									<SimplePredicate field="double(V24)" operator="lessOrEqual" value="-1.1424589658712851"/>
									<ScoreDistribution value="0" recordCount="3999"/>
									<ScoreDistribution value="1" recordCount="9000"/>
								</Node>
								<Node score="1" recordCount="26461">
									<True/>
									<ScoreDistribution value="0" recordCount="13193"/>
									<ScoreDistribution value="1" recordCount="13268"/>
								</Node>
							</Node>
							<Node score="1" recordCount="4156">
								<SimplePredicate field="double(V22)" operator="lessOrEqual" value="1.5454992062187896"/>
								<ScoreDistribution value="0" recordCount="309"/>
								<ScoreDistribution value="1" recordCount="3847"/>
							</Node>
							<Node score="1" recordCount="339">
								<True/>
								<ScoreDistribution value="0" recordCount="9"/>
								<ScoreDistribution value="1" recordCount="330"/>
							</Node>
						</Node>
						<Node>
							<SimplePredicate field="double(V26)" operator="lessOrEqual" value="3.5511603253524564"/>
							<Node score="1" recordCount="1150">
								<SimplePredicate field="double(V13)" operator="lessOrEqual" value="-1.579595404825664"/>
								<ScoreDistribution value="0" recordCount="0"/>
								<ScoreDistribution value="1" recordCount="1150"/>
							</Node>
							<Node score="0" recordCount="47168">
								<True/>
								<ScoreDistribution value="0" recordCount="29559"/>
								<ScoreDistribution value="1" recordCount="17609"/>
							</Node>
						</Node>
						<Node score="1" recordCount="1196">
							<True/>
							<ScoreDistribution value="0" recordCount="0"/>
							<ScoreDistribution value="1" recordCount="1196"/>
						</Node>
					</Node>
				</TreeModel>
			</Segment>
			<Segment id="13">
				<True/>
				<TreeModel functionName="classification" missingValueStrategy="nullPrediction">
					<MiningSchema>
						<MiningField name="double(V10)"/>
						<MiningField name="double(V1)"/>
						<MiningField name="double(V21)"/>
						<MiningField name="double(COS_V6_day_)"/>
						<MiningField name="double(V6_year)"/>
						<MiningField name="double(V4)"/>
						<MiningField name="double(V26)"/>
						<MiningField name="double(V23_year)"/>
						<MiningField name="double(V24)"/>
					</MiningSchema>
					<Node>
						<True/>
						<Node>
							<SimplePredicate field="double(V23_year)" operator="lessOrEqual" value="-0.4507477179072852"/>
							<Node score="1" recordCount="963">
								<SimplePredicate field="double(V21)" operator="lessOrEqual" value="-1.3066492680288022"/>
								<ScoreDistribution value="0" recordCount="0"/>
								<ScoreDistribution value="1" recordCount="963"/>
							</Node>
							<Node>
								<SimplePredicate field="double(V24)" operator="lessOrEqual" value="0.3685354065494826"/>
								<Node score="1" recordCount="9680">
									<SimplePredicate field="double(V1)" operator="lessOrEqual" value="-0.05558122950486277"/>
									<ScoreDistribution value="0" recordCount="0"/>
									<ScoreDistribution value="1" recordCount="9680"/>
								</Node>
								<Node score="0" recordCount="20809">
									<True/>
									<ScoreDistribution value="0" recordCount="11815"/>
									<ScoreDistribution value="1" recordCount="8994"/>
								</Node>
							</Node>
							<Node score="1" recordCount="8595">
								<SimplePredicate field="double(V10)" operator="lessOrEqual" value="-0.15918881205390312"/>
								<ScoreDistribution value="0" recordCount="3877"/>
								<ScoreDistribution value="1" recordCount="4718"/>
							</Node>
							<Node score="0" recordCount="11848">
								<True/>
								<ScoreDistribution value="0" recordCount="6542"/>
								<ScoreDistribution value="1" recordCount="5306"/>
							</Node>
						</Node>
						<Node>
							<SimplePredicate field="double(V6_year)" operator="lessOrEqual" value="0.30748587181689313"/>
							<Node>
								<SimplePredicate field="double(V1)" operator="lessOrEqual" value="0.4990361714845868"/>
								<Node score="1" recordCount="244">
									<SimplePredicate field="double(V26)" operator="lessOrEqual" value="-1.0963280056444185"/>
									<ScoreDistribution value="0" recordCount="0"/>
									<ScoreDistribution value="1" recordCount="244"/>
								</Node>
								<Node score="1" recordCount="4005">
									<True/>
									<ScoreDistribution value="0" recordCount="1527"/>
									<ScoreDistribution value="1" recordCount="2478"/>
								</Node>
							</Node>
							<Node score="1" recordCount="40">
								<SimplePredicate field="double(V26)" operator="lessOrEqual" value="-1.0240514027412684"/>
								<ScoreDistribution value="0" recordCount="0"/>
								<ScoreDistribution value="1" recordCount="40"/>
							</Node>
							<Node score="0" recordCount="8189">
								<True/>
								<ScoreDistribution value="0" recordCount="7831"/>
								<ScoreDistribution value="1" recordCount="358"/>
							</Node>
						</Node>
						<Node>
							<SimplePredicate field="double(V10)" operator="lessOrEqual" value="-1.2591091854452345"/>
							<Node score="1" recordCount="2499">
								<SimplePredicate field="double(COS_V6_day_)" operator="lessOrEqual" value="0.09301404387784834"/>
								<ScoreDistribution value="0" recordCount="377"/>
								<ScoreDistribution value="1" recordCount="2122"/>
							</Node>
							<Node score="1" recordCount="794">
								<True/>
								<ScoreDistribution value="0" recordCount="12"/>
								<ScoreDistribution value="1" recordCount="782"/>
							</Node>
						</Node>
						<Node score="0" recordCount="25525">
							<SimplePredicate field="double(V4)" operator="lessOrEqual" value="4.457286992055629"/>
							<ScoreDistribution value="0" recordCount="14041"/>
							<ScoreDistribution value="1" recordCount="11484"/>
						</Node>
						<Node score="0" recordCount="1047">
							<True/>
							<ScoreDistribution value="0" recordCount="1047"/>
							<ScoreDistribution value="1" recordCount="0"/>
						</Node>
					</Node>
				</TreeModel>
			</Segment>
			<Segment id="14">
				<True/>
				<TreeModel functionName="classification" missingValueStrategy="nullPrediction">
					<MiningSchema>
						<MiningField name="double(SIN_V6_day_)"/>
						<MiningField name="double(V13)"/>
						<MiningField name="double(V2)"/>
						<MiningField name="double(V21)"/>
						<MiningField name="double(V8_year)"/>
						<MiningField name="double(V6_year)"/>
						<MiningField name="double(V26)"/>
						<MiningField name="double(COS_V7_month_)"/>
					</MiningSchema>
					<Node>
						<True/>
						<Node>
							<SimplePredicate field="double(SIN_V6_day_)" operator="lessOrEqual" value="0.8958612419274972"/>
							<Node>
								<SimplePredicate field="double(COS_V7_month_)" operator="lessOrEqual" value="0.41403128256557187"/>
								<Node>
									<SimplePredicate field="double(V21)" operator="lessOrEqual" value="1.2823965345731696"/>
									<Node score="0" recordCount="43077">
										<SimplePredicate field="double(V6_year)" operator="lessOrEqual" value="1.5367194282895138"/>
										<ScoreDistribution value="0" recordCount="23222"/>
										<ScoreDistribution value="1" recordCount="19855"/>
									</Node>
									<Node score="0" recordCount="5984">
										<True/>
										<ScoreDistribution value="0" recordCount="4082"/>
										<ScoreDistribution value="1" recordCount="1902"/>
									</Node>
								</Node>
								<Node score="1" recordCount="972">
									<SimplePredicate field="double(V8_year)" operator="lessOrEqual" value="-0.37392163721982274"/>
									<ScoreDistribution value="0" recordCount="0"/>
									<ScoreDistribution value="1" recordCount="972"/>
								</Node>
								<Node score="1" recordCount="642">
									<True/>
									<ScoreDistribution value="0" recordCount="16"/>
									<ScoreDistribution value="1" recordCount="626"/>
								</Node>
							</Node>
							<Node score="1" recordCount="221">
								<SimplePredicate field="double(V13)" operator="lessOrEqual" value="-6.268481507124681"/>
								<ScoreDistribution value="0" recordCount="0"/>
								<ScoreDistribution value="1" recordCount="221"/>
							</Node>
							<Node score="1" recordCount="5562">
								<SimplePredicate field="double(V2)" operator="lessOrEqual" value="-1.0522637469793703"/>
								<ScoreDistribution value="0" recordCount="523"/>
								<ScoreDistribution value="1" recordCount="5039"/>
							</Node>
							<Node score="0" recordCount="31830">
								<True/>
								<ScoreDistribution value="0" recordCount="18380"/>
								<ScoreDistribution value="1" recordCount="13450"/>
							</Node>
						</Node>
						<Node score="1" recordCount="266">
							<SimplePredicate field="double(V26)" operator="lessOrEqual" value="-1.8570504374751193"/>
							<ScoreDistribution value="0" recordCount="0"/>
							<ScoreDistribution value="1" recordCount="266"/>
						</Node>
						<Node>
							<SimplePredicate field="double(V26)" operator="lessOrEqual" value="1.208559525193269"/>
							<Node score="1" recordCount="1186">
								<SimplePredicate field="double(V8_year)" operator="lessOrEqual" value="1.0291474984040017"/>
								<ScoreDistribution value="0" recordCount="71"/>
								<ScoreDistribution value="1" recordCount="1115"/>
							</Node>
							<Node score="1" recordCount="3906">
								<True/>
								<ScoreDistribution value="0" recordCount="775"/>
								<ScoreDistribution value="1" recordCount="3131"/>
							</Node>
						</Node>
						<Node score="1" recordCount="592">
							<True/>
							<ScoreDistribution value="0" recordCount="0"/>
							<ScoreDistribution value="1" recordCount="592"/>
						</Node>
					</Node>
				</TreeModel>
			</Segment>
			<Segment id="15">
				<True/>
				<TreeModel functionName="classification" missingValueStrategy="nullPrediction">
					<MiningSchema>
						<MiningField name="double(SIN_V6_day_)"/>
						<MiningField name="double(V2)"/>
						<MiningField name="double(V3)"/>
						<MiningField name="double(COS_V6_day_)"/>
						<MiningField name="double(V22)"/>
						<MiningField name="double(V8_year)"/>
						<MiningField name="double(V4)"/>
						<MiningField name="double(V23_year)"/>
						<MiningField name="double(V19)"/>
						<MiningField name="double(V24)"/>
						<MiningField name="double(COS_V8_day_)"/>
						<MiningField name="double(SIN_V8_month_)"/>
						<MiningField name="double(V12)"/>
					</MiningSchema>
					<Node>
						<True/>
						<Node>
							<SimplePredicate field="double(V2)" operator="lessOrEqual" value="-0.5574755100466615"/>
							<Node>
								<SimplePredicate field="double(V4)" operator="lessOrEqual" value="4.41570804533243"/>
								<Node>
									<SimplePredicate field="double(V24)" operator="lessOrEqual" value="-0.5597689926797406"/>
									<Node score="1" recordCount="13704">
										<SimplePredicate field="double(COS_V6_day_)" operator="lessOrEqual" value="1.4595073844813389"/>
										<ScoreDistribution value="0" recordCount="1785"/>
										<ScoreDistribution value="1" recordCount="11919"/>
									</Node>
									<Node score="1" recordCount="3793">
										<True/>
										<ScoreDistribution value="0" recordCount="0"/>
										<ScoreDistribution value="1" recordCount="3793"/>
									</Node>
								</Node>
								<Node score="1" recordCount="108">
									<SimplePredicate field="double(V19)" operator="lessOrEqual" value="-0.45826922958857874"/>
									<ScoreDistribution value="0" recordCount="1"/>
									<ScoreDistribution value="1" recordCount="107"/>
								</Node>
								<Node score="1" recordCount="1479">
									<True/>
									<ScoreDistribution value="0" recordCount="1"/>
									<ScoreDistribution value="1" recordCount="1478"/>
								</Node>
							</Node>
							<Node>
								<SimplePredicate field="double(COS_V8_day_)" operator="lessOrEqual" value="0.7888324473840784"/>
								<Node score="1" recordCount="108">
									<SimplePredicate field="double(V22)" operator="lessOrEqual" value="0.23272851629178692"/>
									<ScoreDistribution value="0" recordCount="48"/>
									<ScoreDistribution value="1" recordCount="60"/>
								</Node>
								<Node score="0" recordCount="28">
									<True/>
									<ScoreDistribution value="0" recordCount="16"/>
									<ScoreDistribution value="1" recordCount="12"/>
								</Node>
							</Node>
							<Node score="1" recordCount="49">
								<SimplePredicate field="double(SIN_V8_month_)" operator="lessOrEqual" value="1.0410959875857002"/>
								<ScoreDistribution value="0" recordCount="19"/>
								<ScoreDistribution value="1" recordCount="30"/>
							</Node>
							<Node score="1" recordCount="12">
								<True/>
								<ScoreDistribution value="0" recordCount="1"/>
								<ScoreDistribution value="1" recordCount="11"/>
							</Node>
						</Node>
						<Node>
							<SimplePredicate field="double(V4)" operator="lessOrEqual" value="2.696600307186598"/>
							<Node>
								<SimplePredicate field="double(V8_year)" operator="lessOrEqual" value="0.11730182869446693"/>
								<Node score="0" recordCount="52346">
									<SimplePredicate field="double(V3)" operator="lessOrEqual" value="10.989217332537727"/>
									<ScoreDistribution value="0" recordCount="29852"/>
									<ScoreDistribution value="1" recordCount="22494"/>
								</Node>
								<Node score="1" recordCount="122">
									<True/>
									<ScoreDistribution value="0" recordCount="0"/>
									<ScoreDistribution value="1" recordCount="122"/>
								</Node>
							</Node>
							<Node score="0" recordCount="20509">
								<SimplePredicate field="double(SIN_V6_day_)" operator="lessOrEqual" value="1.9689414147372157"/>
								<ScoreDistribution value="0" recordCount="14106"/>
								<ScoreDistribution value="1" recordCount="6403"/>
							</Node>
							<Node score="1" recordCount="718">
								<True/>
								<ScoreDistribution value="0" recordCount="0"/>
								<ScoreDistribution value="1" recordCount="718"/>
							</Node>
						</Node>
						<Node>
							<SimplePredicate field="double(V23_year)" operator="lessOrEqual" value="0.8079334001224663"/>
							<Node score="0" recordCount="112">
								<SimplePredicate field="double(V24)" operator="lessOrEqual" value="0.27106064255107354"/>
								<ScoreDistribution value="0" recordCount="106"/>
								<ScoreDistribution value="1" recordCount="6"/>
							</Node>
							<Node score="0" recordCount="109">
								<True/>
								<ScoreDistribution value="0" recordCount="107"/>
								<ScoreDistribution value="1" recordCount="2"/>
							</Node>
						</Node>
						<Node score="1" recordCount="14">
							<SimplePredicate field="double(V12)" operator="lessOrEqual" value="-0.26242731463447544"/>
							<ScoreDistribution value="0" recordCount="0"/>
							<ScoreDistribution value="1" recordCount="14"/>
						</Node>
						<Node score="0" recordCount="1027">
							<True/>
							<ScoreDistribution value="0" recordCount="1027"/>
							<ScoreDistribution value="1" recordCount="0"/>
						</Node>
					</Node>
				</TreeModel>
			</Segment>
			<Segment id="16">
				<True/>
				<TreeModel functionName="classification" missingValueStrategy="nullPrediction">
					<MiningSchema>
						<MiningField name="double(SIN_V6_day_)"/>
						<MiningField name="double(V13)"/>
						<MiningField name="double(V22)"/>
						<MiningField name="double(V8_year)"/>
						<MiningField name="double(V6_year)"/>
						<MiningField name="double(V26)"/>
						<MiningField name="double(V24)"/>
					</MiningSchema>
					<Node>
						<True/>
						<Node>
							<SimplePredicate field="double(SIN_V6_day_)" operator="lessOrEqual" value="1.8813045516296736"/>
							<Node>
								<SimplePredicate field="double(V13)" operator="lessOrEqual" value="2.6853594072239915"/>
								<Node>
									<SimplePredicate field="double(V22)" operator="lessOrEqual" value="2.7723828161090704"/>
									<Node score="0" recordCount="55971">
										<SimplePredicate field="double(V24)" operator="lessOrEqual" value="0.5788470975263724"/>
										<ScoreDistribution value="0" recordCount="28250"/>
										<ScoreDistribution value="1" recordCount="27721"/>
									</Node>
									<Node score="0" recordCount="28518">
										<True/>
										<ScoreDistribution value="0" recordCount="17973"/>
										<ScoreDistribution value="1" recordCount="10545"/>
									</Node>
								</Node>
								<Node score="1" recordCount="1306">
									<True/>
									<ScoreDistribution value="0" recordCount="0"/>
									<ScoreDistribution value="1" recordCount="1306"/>
								</Node>
							</Node>
							<Node score="1" recordCount="2493">
								<True/>
								<ScoreDistribution value="0" recordCount="0"/>
								<ScoreDistribution value="1" recordCount="2493"/>
							</Node>
						</Node>
						<Node>
							<SimplePredicate field="double(V26)" operator="lessOrEqual" value="1.3907999364074026"/>
							<Node>
								<SimplePredicate field="double(V8_year)" operator="lessOrEqual" value="1.0670998325555159"/>
								<Node score="1" recordCount="1230">
									<SimplePredicate field="double(V6_year)" operator="lessOrEqual" value="2.1449982999398003"/>
									<ScoreDistribution value="0" recordCount="71"/>
									<ScoreDistribution value="1" recordCount="1159"/>
								</Node>
								<Node score="1" recordCount="23">
									<True/>
									<ScoreDistribution value="0" recordCount="0"/>
									<ScoreDistribution value="1" recordCount="23"/>
								</Node>
							</Node>
							<Node score="1" recordCount="534">
								<SimplePredicate field="double(V8_year)" operator="lessOrEqual" value="1.2293555410365153"/>
								<ScoreDistribution value="0" recordCount="57"/>
								<ScoreDistribution value="1" recordCount="477"/>
							</Node>
							<Node score="1" recordCount="3583">
								<True/>
								<ScoreDistribution value="0" recordCount="718"/>
								<ScoreDistribution value="1" recordCount="2865"/>
							</Node>
						</Node>
						<Node score="1" recordCount="580">
							<True/>
							<ScoreDistribution value="0" recordCount="0"/>
							<ScoreDistribution value="1" recordCount="580"/>
						</Node>
					</Node>
				</TreeModel>
			</Segment>
			<Segment id="17">
				<True/>
				<TreeModel functionName="classification" missingValueStrategy="nullPrediction">
					<MiningSchema>
						<MiningField name="double(SIN_V6_day_)"/>
						<MiningField name="double(V1)"/>
						<MiningField name="double(V13)"/>
						<MiningField name="double(V2)"/>
						<MiningField name="double(V7_year)"/>
						<MiningField name="double(V24)"/>
					</MiningSchema>
					<Node>
						<True/>
						<Node>
							<SimplePredicate field="double(V1)" operator="lessOrEqual" value="-1.349443823009788"/>
							<Node>
								<SimplePredicate field="double(V24)" operator="lessOrEqual" value="0.6771824293206525"/>
								<Node>
									<SimplePredicate field="double(V7_year)" operator="lessOrEqual" value="0.8504962079107763"/>
									<Node score="1" recordCount="1533">
										<SimplePredicate field="double(V1)" operator="lessOrEqual" value="-1.8225336860966612"/>
										<ScoreDistribution value="0" recordCount="0"/>
										<ScoreDistribution value="1" recordCount="1533"/>
									</Node>
									<Node score="1" recordCount="11942">
										<True/>
										<ScoreDistribution value="0" recordCount="1527"/>
										<ScoreDistribution value="1" recordCount="10415"/>
									</Node>
								</Node>
								<Node score="1" recordCount="4892">
									<SimplePredicate field="double(SIN_V6_day_)" operator="lessOrEqual" value="-0.08744484665060001"/>
									<ScoreDistribution value="0" recordCount="316"/>
									<ScoreDistribution value="1" recordCount="4576"/>
								</Node>
								<Node score="1" recordCount="2895">
									<True/>
									<ScoreDistribution value="0" recordCount="28"/>
									<ScoreDistribution value="1" recordCount="2867"/>
								</Node>
							</Node>
							<Node score="1" recordCount="2380">
								<True/>
								<ScoreDistribution value="0" recordCount="0"/>
								<ScoreDistribution value="1" recordCount="2380"/>
							</Node>
						</Node>
						<Node score="1" recordCount="1556">
							<SimplePredicate field="double(V2)" operator="lessOrEqual" value="-1.3843116916435272"/>
							<ScoreDistribution value="0" recordCount="0"/>
							<ScoreDistribution value="1" recordCount="1556"/>
						</Node>
						<Node>
							<SimplePredicate field="double(V1)" operator="lessOrEqual" value="1.1341935727727983"/>
							<Node score="1" recordCount="567">
								<SimplePredicate field="double(V13)" operator="lessOrEqual" value="-4.755248350717093"/>
								<ScoreDistribution value="0" recordCount="0"/>
								<ScoreDistribution value="1" recordCount="567"/>
							</Node>
							<Node score="0" recordCount="67944">
								<True/>
								<ScoreDistribution value="0" recordCount="45198"/>
								<ScoreDistribution value="1" recordCount="22746"/>
							</Node>
						</Node>
						<Node score="1" recordCount="529">
							<True/>
							<ScoreDistribution value="0" recordCount="0"/>
							<ScoreDistribution value="1" recordCount="529"/>
						</Node>
					</Node>
				</TreeModel>
			</Segment>
			<Segment id="18">
				<True/>
				<TreeModel functionName="classification" missingValueStrategy="nullPrediction">
					<MiningSchema>
						<MiningField name="double(SIN_V6_day_)"/>
						<MiningField name="double(V10)"/>
						<MiningField name="double(V1)"/>
						<MiningField name="double(V21)"/>
						<MiningField name="double(COS_V6_day_)"/>
						<MiningField name="double(V26)"/>
						<MiningField name="double(V23_year)"/>
						<MiningField name="double(V24)"/>
					</MiningSchema>
					<Node>
						<True/>
						<Node>
							<SimplePredicate field="double(V10)" operator="lessOrEqual" value="-0.3430463960157527"/>
							<Node>
								<SimplePredicate field="double(COS_V6_day_)" operator="lessOrEqual" value="3.005303737900514"/>
								<Node>
									<SimplePredicate field="double(V24)" operator="lessOrEqual" value="0.5240604884598505"/>
									<Node score="1" recordCount="24582">
										<SimplePredicate field="double(V26)" operator="lessOrEqual" value="2.842104225366657"/>
										<ScoreDistribution value="0" recordCount="9770"/>
										<ScoreDistribution value="1" recordCount="14812"/>
									</Node>
									<Node score="1" recordCount="1639">
										<True/>
										<ScoreDistribution value="0" recordCount="0"/>
										<ScoreDistribution value="1" recordCount="1639"/>
									</Node>
								</Node>
								<Node score="0" recordCount="10577">
									<SimplePredicate field="double(V21)" operator="lessOrEqual" value="3.137860730554073"/>
									<ScoreDistribution value="0" recordCount="5863"/>
									<ScoreDistribution value="1" recordCount="4714"/>
								</Node>
								<Node score="1" recordCount="372">
									<True/>
									<ScoreDistribution value="0" recordCount="0"/>
									<ScoreDistribution value="1" recordCount="372"/>
								</Node>
							</Node>
							<Node>
								<SimplePredicate field="double(V1)" operator="lessOrEqual" value="0.3216433273976689"/>
								<Node score="1" recordCount="2711">
									<SimplePredicate field="double(V26)" operator="lessOrEqual" value="2.389903931069308"/>
									<ScoreDistribution value="0" recordCount="47"/>
									<ScoreDistribution value="1" recordCount="2664"/>
								</Node>
								<Node score="1" recordCount="363">
									<True/>
									<ScoreDistribution value="0" recordCount="0"/>
									<ScoreDistribution value="1" recordCount="363"/>
								</Node>
							</Node>
							<Node score="1" recordCount="604">
								<SimplePredicate field="double(V1)" operator="lessOrEqual" value="0.944838601450715"/>
								<ScoreDistribution value="0" recordCount="238"/>
								<ScoreDistribution value="1" recordCount="366"/>
							</Node>
							<Node score="1" recordCount="26">
								<True/>
								<ScoreDistribution value="0" recordCount="0"/>
								<ScoreDistribution value="1" recordCount="26"/>
							</Node>
						</Node>
						<Node score="1" recordCount="348">
							<SimplePredicate field="double(V21)" operator="lessOrEqual" value="-1.6975366032834411"/>
							<ScoreDistribution value="0" recordCount="0"/>
							<ScoreDistribution value="1" recordCount="348"/>
						</Node>
						<Node>
							<SimplePredicate field="double(V23_year)" operator="lessOrEqual" value="-0.40133510022425023"/>
							<Node score="1" recordCount="676">
								<SimplePredicate field="double(V26)" operator="lessOrEqual" value="-0.9321462742617999"/>
								<ScoreDistribution value="0" recordCount="0"/>
								<ScoreDistribution value="1" recordCount="676"/>
							</Node>
							<Node score="0" recordCount="29245">
								<True/>
								<ScoreDistribution value="0" recordCount="15215"/>
								<ScoreDistribution value="1" recordCount="14030"/>
							</Node>
						</Node>
						<Node score="0" recordCount="21132">
							<SimplePredicate field="double(SIN_V6_day_)" operator="lessOrEqual" value="0.26568984487388037"/>
							<ScoreDistribution value="0" recordCount="15396"/>
							<ScoreDistribution value="1" recordCount="5736"/>
						</Node>
						<Node score="1" recordCount="1963">
							<True/>
							<ScoreDistribution value="0" recordCount="540"/>
							<ScoreDistribution value="1" recordCount="1423"/>
						</Node>
					</Node>
				</TreeModel>
			</Segment>
			<Segment id="19">
				<True/>
				<TreeModel functionName="classification" missingValueStrategy="nullPrediction">
					<MiningSchema>
						<MiningField name="double(V10)"/>
						<MiningField name="double(V1)"/>
						<MiningField name="double(V2)"/>
						<MiningField name="double(V9)"/>
						<MiningField name="double(V26)"/>
						<MiningField name="double(V27)"/>
						<MiningField name="double(SIN_V7_month_)"/>
					</MiningSchema>
					<Node>
						<True/>
						<Node score="1" recordCount="4062">
							<SimplePredicate field="double(V26)" operator="lessOrEqual" value="-1.3659628634974488"/>
							<ScoreDistribution value="0" recordCount="0"/>
							<ScoreDistribution value="1" recordCount="4062"/>
						</Node>
						<Node>
							<SimplePredicate field="double(V1)" operator="lessOrEqual" value="-1.812631973649227"/>
							<Node score="1" recordCount="2245">
								<SimplePredicate field="double(SIN_V7_month_)" operator="lessOrEqual" value="0.8358968881339481"/>
								<ScoreDistribution value="0" recordCount="0"/>
								<ScoreDistribution value="1" recordCount="2245"/>
							</Node>
							<Node score="1" recordCount="357">
								<SimplePredicate field="double(V2)" operator="lessOrEqual" value="-0.8339221739370486"/>
								<ScoreDistribution value="0" recordCount="9"/>
								<ScoreDistribution value="1" recordCount="348"/>
							</Node>
							<Node score="1" recordCount="430">
								<True/>
								<ScoreDistribution value="0" recordCount="0"/>
								<ScoreDistribution value="1" recordCount="430"/>
							</Node>
						</Node>
						<Node>
							<SimplePredicate field="double(V10)" operator="lessOrEqual" value="1.5769046153517277"/>
							<Node score="1" recordCount="37400">
								<SimplePredicate field="double(V9)" operator="lessOrEqual" value="-0.27220805179941365"/>
								<ScoreDistribution value="0" recordCount="15650"/>
								<ScoreDistribution value="1" recordCount="21750"/>
							</Node>
							<Node score="0" recordCount="43545">
								<True/>
								<ScoreDistribution value="0" recordCount="27605"/>
								<ScoreDistribution value="1" recordCount="15940"/>
							</Node>
						</Node>
						<Node score="1" recordCount="98">
							<SimplePredicate field="double(V27)" operator="lessOrEqual" value="-3.3383021840766207"/>
							<ScoreDistribution value="0" recordCount="0"/>
							<ScoreDistribution value="1" recordCount="98"/>
						</Node>
						<Node score="0" recordCount="6101">
							<True/>
							<ScoreDistribution value="0" recordCount="3805"/>
							<ScoreDistribution value="1" recordCount="2296"/>
						</Node>
					</Node>
				</TreeModel>
			</Segment>
			<Segment id="20">
				<True/>
				<TreeModel functionName="classification" missingValueStrategy="nullPrediction">
					<MiningSchema>
						<MiningField name="double(V10)"/>
						<MiningField name="double(V13)"/>
						<MiningField name="double(V2)"/>
						<MiningField name="double(V9)"/>
						<MiningField name="double(V21)"/>
						<MiningField name="double(COS_V6_day_)"/>
						<MiningField name="double(V26)"/>
						<MiningField name="double(V23_year)"/>
						<MiningField name="double(V19)"/>
						<MiningField name="double(COS_V6_month_)"/>
						<MiningField name="double(V12)"/>
					</MiningSchema>
					<Node>
						<True/>
						<Node>
							<SimplePredicate field="double(V10)" operator="lessOrEqual" value="-0.8474465426786668"/>
							<Node>
								<SimplePredicate field="double(COS_V6_day_)" operator="lessOrEqual" value="1.53458005889136"/>
								<Node>
									<SimplePredicate field="double(V19)" operator="lessOrEqual" value="-0.4184546602743975"/>
									<Node score="1" recordCount="6218">
										<SimplePredicate field="double(COS_V6_month_)" operator="lessOrEqual" value="1.1035351918040126"/>
										<ScoreDistribution value="0" recordCount="2927"/>
										<ScoreDistribution value="1" recordCount="3291"/>
									</Node>
									<Node score="1" recordCount="2393">
										<True/>
										<ScoreDistribution value="0" recordCount="954"/>
										<ScoreDistribution value="1" recordCount="1439"/>
									</Node>
								</Node>
								<Node score="1" recordCount="14631">
									<SimplePredicate field="double(V13)" operator="lessOrEqual" value="0.5541562089627199"/>
									<ScoreDistribution value="0" recordCount="4316"/>
									<ScoreDistribution value="1" recordCount="10315"/>
								</Node>
								<Node score="1" recordCount="613">
									<True/>
									<ScoreDistribution value="0" recordCount="3"/>
									<ScoreDistribution value="1" recordCount="610"/>
								</Node>
							</Node>
							<Node>
								<SimplePredicate field="double(V10)" operator="lessOrEqual" value="-1.1565465533233747"/>
								<Node score="1" recordCount="430">
									<SimplePredicate field="double(V23_year)" operator="lessOrEqual" value="0.40321436512487807"/>
									<ScoreDistribution value="0" recordCount="8"/>
									<ScoreDistribution value="1" recordCount="422"/>
								</Node>
								<Node score="1" recordCount="1038">
									<True/>
									<ScoreDistribution value="0" recordCount="35"/>
									<ScoreDistribution value="1" recordCount="1003"/>
								</Node>
							</Node>
							<Node score="1" recordCount="1006">
								<SimplePredicate field="double(V26)" operator="lessOrEqual" value="2.6477464147327945"/>
								<ScoreDistribution value="0" recordCount="97"/>
								<ScoreDistribution value="1" recordCount="909"/>
							</Node>
							<Node score="1" recordCount="173">
								<True/>
								<ScoreDistribution value="0" recordCount="0"/>
								<ScoreDistribution value="1" recordCount="173"/>
							</Node>
						</Node>
						<Node>
							<SimplePredicate field="double(V19)" operator="lessOrEqual" value="0.2253571403671819"/>
							<Node score="1" recordCount="314">
								<SimplePredicate field="double(V21)" operator="lessOrEqual" value="-1.5304061687700028"/>
								<ScoreDistribution value="0" recordCount="0"/>
								<ScoreDistribution value="1" recordCount="314"/>
							</Node>
							<Node score="1" recordCount="1514">
								<SimplePredicate field="double(V2)" operator="lessOrEqual" value="-0.3614311512781123"/>
								<ScoreDistribution value="0" recordCount="103"/>
								<ScoreDistribution value="1" recordCount="1411"/>
							</Node>
							<Node score="0" recordCount="43938">
								<True/>
								<ScoreDistribution value="0" recordCount="28246"/>
								<ScoreDistribution value="1" recordCount="15692"/>
							</Node>
						</Node>
						<Node>
							<SimplePredicate field="double(V9)" operator="lessOrEqual" value="0.7534492403060198"/>
							<Node score="1" recordCount="16505">
								<SimplePredicate field="double(V12)" operator="lessOrEqual" value="12.142949405601607"/>
								<ScoreDistribution value="0" recordCount="6843"/>
								<ScoreDistribution value="1" recordCount="9662"/>
							</Node>
							<Node score="1" recordCount="47">
								<True/>
								<ScoreDistribution value="0" recordCount="0"/>
								<ScoreDistribution value="1" recordCount="47"/>
							</Node>
						</Node>
						<Node score="0" recordCount="5385">
							<SimplePredicate field="double(V12)" operator="lessOrEqual" value="2.295963028142473"/>
							<ScoreDistribution value="0" recordCount="3537"/>
							<ScoreDistribution value="1" recordCount="1848"/>
						</Node>
						<Node score="1" recordCount="33">
							<True/>
							<ScoreDistribution value="0" recordCount="0"/>
							<ScoreDistribution value="1" recordCount="33"/>
						</Node>
					</Node>
				</TreeModel>
			</Segment>
			<Segment id="21">
				<True/>
				<TreeModel functionName="classification" missingValueStrategy="nullPrediction">
					<MiningSchema>
						<MiningField name="double(SIN_V6_day_)"/>
						<MiningField name="double(V10)"/>
						<MiningField name="double(V1)"/>
						<MiningField name="double(V2)"/>
						<MiningField name="double(V9)"/>
						<MiningField name="double(V22)"/>
						<MiningField name="double(V26)"/>
						<MiningField name="double(V19)"/>
						<MiningField name="double(COS_V7_month_)"/>
						<MiningField name="double(V12)"/>
						<MiningField name="double(SIN_V23_month_)"/>
					</MiningSchema>
					<Node>
						<True/>
						<Node>
							<SimplePredicate field="double(V10)" operator="lessOrEqual" value="-0.922453778744699"/>
							<Node>
								<SimplePredicate field="double(V9)" operator="lessOrEqual" value="-0.43090034374851705"/>
								<Node>
									<SimplePredicate field="double(V1)" operator="lessOrEqual" value="-0.8783111440281584"/>
									<Node score="1" recordCount="3574">
										<SimplePredicate field="double(V19)" operator="lessOrEqual" value="0.413630938589018"/>
										<ScoreDistribution value="0" recordCount="745"/>
										<ScoreDistribution value="1" recordCount="2829"/>
									</Node>
									<Node score="1" recordCount="7090">
										<True/>
										<ScoreDistribution value="0" recordCount="620"/>
										<ScoreDistribution value="1" recordCount="6470"/>
									</Node>
								</Node>
								<Node score="1" recordCount="440">
									<SimplePredicate field="double(V2)" operator="lessOrEqual" value="-0.4965638856354293"/>
									<ScoreDistribution value="0" recordCount="0"/>
									<ScoreDistribution value="1" recordCount="440"/>
								</Node>
								<Node score="1" recordCount="3299">
									<True/>
									<ScoreDistribution value="0" recordCount="1581"/>
									<ScoreDistribution value="1" recordCount="1718"/>
								</Node>
							</Node>
							<Node>
								<SimplePredicate field="double(V10)" operator="lessOrEqual" value="-1.0517671624987095"/>
								<Node score="1" recordCount="7860">
									<SimplePredicate field="double(SIN_V23_month_)" operator="lessOrEqual" value="5.860805746568985"/>
									<ScoreDistribution value="0" recordCount="2967"/>
									<ScoreDistribution value="1" recordCount="4893"/>
								</Node>
								<Node score="1" recordCount="98">
									<True/>
									<ScoreDistribution value="0" recordCount="24"/>
									<ScoreDistribution value="1" recordCount="74"/>
								</Node>
							</Node>
							<Node score="0" recordCount="1951">
								<SimplePredicate field="double(V26)" operator="lessOrEqual" value="2.8049847960122785"/>
								<ScoreDistribution value="0" recordCount="1281"/>
								<ScoreDistribution value="1" recordCount="670"/>
							</Node>
							<Node score="1" recordCount="82">
								<True/>
								<ScoreDistribution value="0" recordCount="0"/>
								<ScoreDistribution value="1" recordCount="82"/>
							</Node>
						</Node>
						<Node>
							<SimplePredicate field="double(SIN_V6_day_)" operator="lessOrEqual" value="2.034356084708871"/>
							<Node>
								<SimplePredicate field="double(V12)" operator="lessOrEqual" value="1.8255395778215613"/>
								<Node score="0" recordCount="65466">
									<SimplePredicate field="double(V22)" operator="lessOrEqual" value="3.7369597179269345"/>
									<ScoreDistribution value="0" recordCount="39125"/>
									<ScoreDistribution value="1" recordCount="26341"/>
								</Node>
								<Node score="1" recordCount="450">
									<True/>
									<ScoreDistribution value="0" recordCount="0"/>
									<ScoreDistribution value="1" recordCount="450"/>
								</Node>
							</Node>
							<Node score="1" recordCount="416">
								<True/>
								<ScoreDistribution value="0" recordCount="0"/>
								<ScoreDistribution value="1" recordCount="416"/>
							</Node>
						</Node>
						<Node>
							<SimplePredicate field="double(COS_V7_month_)" operator="lessOrEqual" value="-1.1411026638087265"/>
							<Node score="1" recordCount="601">
								<SimplePredicate field="double(V1)" operator="lessOrEqual" value="-0.398752768902632"/>
								<ScoreDistribution value="0" recordCount="8"/>
								<ScoreDistribution value="1" recordCount="593"/>
							</Node>
							<Node score="1" recordCount="340">
								<True/>
								<ScoreDistribution value="0" recordCount="133"/>
								<ScoreDistribution value="1" recordCount="207"/>
							</Node>
						</Node>
						<Node score="1" recordCount="1446">
							<SimplePredicate field="double(V2)" operator="lessOrEqual" value="-0.4614322799153203"/>
							<ScoreDistribution value="0" recordCount="16"/>
							<ScoreDistribution value="1" recordCount="1430"/>
						</Node>
						<Node score="0" recordCount="1125">
							<True/>
							<ScoreDistribution value="0" recordCount="569"/>
							<ScoreDistribution value="1" recordCount="556"/>
						</Node>
					</Node>
				</TreeModel>
			</Segment>
			<Segment id="22">
				<True/>
				<TreeModel functionName="classification" missingValueStrategy="nullPrediction">
					<MiningSchema>
						<MiningField name="double(V10)"/>
						<MiningField name="double(V13)"/>
						<MiningField name="double(V2)"/>
						<MiningField name="double(V21)"/>
						<MiningField name="double(V6_year)"/>
						<MiningField name="double(V26)"/>
						<MiningField name="double(V27)"/>
					</MiningSchema>
					<Node>
						<True/>
						<Node score="1" recordCount="7041">
							<SimplePredicate field="double(V26)" operator="lessOrEqual" value="-0.5795185569150525"/>
							<ScoreDistribution value="0" recordCount="0"/>
							<ScoreDistribution value="1" recordCount="7041"/>
						</Node>
						<Node>
							<SimplePredicate field="double(V27)" operator="lessOrEqual" value="-1.462567185674541"/>
							<Node>
								<SimplePredicate field="double(V2)" operator="lessOrEqual" value="-3.3495055529485978"/>
								<Node score="0" recordCount="9">
									<SimplePredicate field="double(V10)" operator="lessOrEqual" value="1.3427770013264997"/>
									<ScoreDistribution value="0" recordCount="5"/>
									<ScoreDistribution value="1" recordCount="4"/>
								</Node>
								<Node score="1" recordCount="1">
									<True/>
									<ScoreDistribution value="0" recordCount="0"/>
									<ScoreDistribution value="1" recordCount="1"/>
								</Node>
							</Node>
							<Node score="1" recordCount="1721">
								<SimplePredicate field="double(V6_year)" operator="lessOrEqual" value="1.7158154051621146"/>
								<ScoreDistribution value="0" recordCount="0"/>
								<ScoreDistribution value="1" recordCount="1721"/>
							</Node>
							<Node score="1" recordCount="31">
								<True/>
								<ScoreDistribution value="0" recordCount="4"/>
								<ScoreDistribution value="1" recordCount="27"/>
							</Node>
						</Node>
						<Node>
							<SimplePredicate field="double(V21)" operator="lessOrEqual" value="3.296301368717563"/>
							<Node score="0" recordCount="79162">
								<SimplePredicate field="double(V13)" operator="lessOrEqual" value="0.7831626271438505"/>
								<ScoreDistribution value="0" recordCount="47060"/>
								<ScoreDistribution value="1" recordCount="32102"/>
							</Node>
							<Node score="1" recordCount="3310">
								<True/>
								<ScoreDistribution value="0" recordCount="0"/>
								<ScoreDistribution value="1" recordCount="3310"/>
							</Node>
						</Node>
						<Node score="1" recordCount="2963">
							<True/>
							<ScoreDistribution value="0" recordCount="0"/>
							<ScoreDistribution value="1" recordCount="2963"/>
						</Node>
					</Node>
				</TreeModel>
			</Segment>
			<Segment id="23">
				<True/>
				<TreeModel functionName="classification" missingValueStrategy="nullPrediction">
					<MiningSchema>
						<MiningField name="double(V1)"/>
						<MiningField name="double(V13)"/>
						<MiningField name="double(V2)"/>
						<MiningField name="double(V21)"/>
						<MiningField name="double(V16)"/>
						<MiningField name="double(V8_year)"/>
						<MiningField name="double(SIN_V7_month_)"/>
					</MiningSchema>
					<Node>
						<True/>
						<Node>
							<SimplePredicate field="double(V1)" operator="lessOrEqual" value="-1.5344907550222233"/>
							<Node score="1" recordCount="868">
								<SimplePredicate field="double(V13)" operator="lessOrEqual" value="-1.33554514991694"/>
								<ScoreDistribution value="0" recordCount="0"/>
								<ScoreDistribution value="1" recordCount="868"/>
							</Node>
							<Node>
								<SimplePredicate field="double(SIN_V7_month_)" operator="lessOrEqual" value="-0.254108724239253"/>
								<Node score="1" recordCount="1429">
									<SimplePredicate field="double(V1)" operator="lessOrEqual" value="-1.6107896551054255"/>
									<ScoreDistribution value="0" recordCount="0"/>
									<ScoreDistribution value="1" recordCount="1429"/>
								</Node>
								<Node score="1" recordCount="10126">
									<True/>
									<ScoreDistribution value="0" recordCount="793"/>
									<ScoreDistribution value="1" recordCount="9333"/>
								</Node>
							</Node>
							<Node score="1" recordCount="7229">
								<SimplePredicate field="double(V8_year)" operator="lessOrEqual" value="0.1269933694292391"/>
								<ScoreDistribution value="0" recordCount="939"/>
								<ScoreDistribution value="1" recordCount="6290"/>
							</Node>
							<Node score="1" recordCount="3990">
								<True/>
								<ScoreDistribution value="0" recordCount="139"/>
								<ScoreDistribution value="1" recordCount="3851"/>
							</Node>
						</Node>
						<Node>
							<SimplePredicate field="double(V16)" operator="lessOrEqual" value="1.0466401605944005"/>
							<Node score="1" recordCount="578">
								<SimplePredicate field="double(V13)" operator="lessOrEqual" value="-4.917463578451342"/>
								<ScoreDistribution value="0" recordCount="0"/>
								<ScoreDistribution value="1" recordCount="578"/>
							</Node>
							<Node score="0" recordCount="51268">
								<SimplePredicate field="double(V21)" operator="lessOrEqual" value="3.5024928598365905"/>
								<ScoreDistribution value="0" recordCount="32568"/>
								<ScoreDistribution value="1" recordCount="18700"/>
							</Node>
							<Node score="1" recordCount="1121">
								<True/>
								<ScoreDistribution value="0" recordCount="0"/>
								<ScoreDistribution value="1" recordCount="1121"/>
							</Node>
						</Node>
						<Node score="1" recordCount="541">
							<SimplePredicate field="double(V2)" operator="lessOrEqual" value="-0.5230539786872443"/>
							<ScoreDistribution value="0" recordCount="0"/>
							<ScoreDistribution value="1" recordCount="541"/>
						</Node>
						<Node score="0" recordCount="16722">
							<SimplePredicate field="double(V21)" operator="lessOrEqual" value="3.0462999605700363"/>
							<ScoreDistribution value="0" recordCount="12630"/>
							<ScoreDistribution value="1" recordCount="4092"/>
						</Node>
						<Node score="1" recordCount="366">
							<True/>
							<ScoreDistribution value="0" recordCount="0"/>
							<ScoreDistribution value="1" recordCount="366"/>
						</Node>
					</Node>
				</TreeModel>
			</Segment>
			<Segment id="24">
				<True/>
				<TreeModel functionName="classification" missingValueStrategy="nullPrediction">
					<MiningSchema>
						<MiningField name="double(SIN_V6_day_)"/>
						<MiningField name="double(V10)"/>
						<MiningField name="double(V1)"/>
						<MiningField name="double(V13)"/>
						<MiningField name="double(V21)"/>
						<MiningField name="double(COS_V6_day_)"/>
						<MiningField name="double(V25)"/>
						<MiningField name="double(COS_V6_month_)"/>
						<MiningField name="double(V24)"/>
					</MiningSchema>
					<Node>
						<True/>
						<Node>
							<SimplePredicate field="double(V24)" operator="lessOrEqual" value="-1.1129779995202382"/>
							<Node>
								<SimplePredicate field="double(V10)" operator="lessOrEqual" value="-1.3013975621198246"/>
								<Node>
									<SimplePredicate field="double(V1)" operator="lessOrEqual" value="-1.4874674120805613"/>
									<Node score="1" recordCount="1633">
										<SimplePredicate field="double(COS_V6_month_)" operator="lessOrEqual" value="0.3377338727034014"/>
										<ScoreDistribution value="0" recordCount="51"/>
										<ScoreDistribution value="1" recordCount="1582"/>
									</Node>
									<Node score="1" recordCount="1121">
										<True/>
										<ScoreDistribution value="0" recordCount="15"/>
										<ScoreDistribution value="1" recordCount="1106"/>
									</Node>
								</Node>
								<Node score="1" recordCount="436">
									<SimplePredicate field="double(V21)" operator="lessOrEqual" value="1.7777889050915658"/>
									<ScoreDistribution value="0" recordCount="42"/>
									<ScoreDistribution value="1" recordCount="394"/>
								</Node>
								<Node score="1" recordCount="38">
									<True/>
									<ScoreDistribution value="0" recordCount="0"/>
									<ScoreDistribution value="1" recordCount="38"/>
								</Node>
							</Node>
							<Node>
								<SimplePredicate field="double(COS_V6_day_)" operator="lessOrEqual" value="1.612578180882554"/>
								<Node score="1" recordCount="5143">
