<?xml version="1.0" encoding="UTF-8" standalone="yes"?>
<PMML xmlns="http://www.dmg.org/PMML-4_4" xmlns:data="http://jpmml.org/jpmml-model/InlineTable" version="4.4">
	<Header>
		<Application name="SkLearn2PMML package" version="0.90.4"/>
		<Timestamp>2023-06-07T11:05:33Z</Timestamp>
	</Header>
	<MiningBuildTask>
		<Extension name="repr">PMMLPipeline(steps=[('XGB', XGBClassifier(base_score=None, booster=None, callbacks=None,
              colsample_bylevel=None, colsample_bynode=None,
              colsample_bytree=None, early_stopping_rounds=None,
              enable_categorical=False, eval_metric=None, feature_types=None,
              gamma=None, gpu_id=None, grow_policy=None, importance_type=None,
              interaction_constraints=None, learning_rate=None, max_bin=None,
              max_cat_threshold=None, max_cat_to_onehot=None,
              max_delta_step=None, max_depth=None, max_leaves=None,
              min_child_weight=None, missing=nan, monotone_constraints=None,
              n_estimators=100, n_jobs=None, num_parallel_tree=None,
              predictor=None, random_state=None, ...))])</Extension>
	</MiningBuildTask>
	<DataDictionary>
		<DataField name="isFraud" optype="categorical" dataType="integer">
			<Value value="0"/>
			<Value value="1"/>
		</DataField>
		<DataField name="COS_V6_day_" optype="continuous" dataType="float">
			<Value value="NaN" property="missing"/>
		</DataField>
		<DataField name="COS_V6_month_" optype="continuous" dataType="float">
			<Value value="NaN" property="missing"/>
		</DataField>
		<DataField name="COS_V7_month_" optype="continuous" dataType="float">
			<Value value="NaN" property="missing"/>
		</DataField>
		<DataField name="COS_V8_day_" optype="continuous" dataType="float">
			<Value value="NaN" property="missing"/>
		</DataField>
		<DataField name="COS_V8_month_" optype="continuous" dataType="float">
			<Value value="NaN" property="missing"/>
		</DataField>
		<DataField name="COS_V23_day_" optype="continuous" dataType="float">
			<Value value="NaN" property="missing"/>
		</DataField>
		<DataField name="COS_V23_month_" optype="continuous" dataType="float">
			<Value value="NaN" property="missing"/>
		</DataField>
		<DataField name="SIN_V6_month_" optype="continuous" dataType="float">
			<Value value="NaN" property="missing"/>
		</DataField>
		<DataField name="SIN_V7_month_" optype="continuous" dataType="float">
			<Value value="NaN" property="missing"/>
		</DataField>
		<DataField name="SIN_V8_day_" optype="continuous" dataType="float">
			<Value value="NaN" property="missing"/>
		</DataField>
		<DataField name="SIN_V8_month_" optype="continuous" dataType="float">
			<Value value="NaN" property="missing"/>
		</DataField>
		<DataField name="SIN_V23_day_" optype="continuous" dataType="float">
			<Value value="NaN" property="missing"/>
		</DataField>
		<DataField name="V1" optype="continuous" dataType="float">
			<Value value="NaN" property="missing"/>
		</DataField>
		<DataField name="V2" optype="continuous" dataType="float">
			<Value value="NaN" property="missing"/>
		</DataField>
		<DataField name="V3" optype="continuous" dataType="float">
			<Value value="NaN" property="missing"/>
		</DataField>
		<DataField name="V4" optype="continuous" dataType="float">
			<Value value="NaN" property="missing"/>
		</DataField>
		<DataField name="V9" optype="continuous" dataType="float">
			<Value value="NaN" property="missing"/>
		</DataField>
		<DataField name="V10" optype="continuous" dataType="float">
			<Value value="NaN" property="missing"/>
		</DataField>
		<DataField name="V12" optype="continuous" dataType="float">
			<Value value="NaN" property="missing"/>
		</DataField>
		<DataField name="V13" optype="continuous" dataType="float">
			<Value value="NaN" property="missing"/>
		</DataField>
		<DataField name="V16" optype="continuous" dataType="float">
			<Value value="NaN" property="missing"/>
		</DataField>
		<DataField name="V19" optype="continuous" dataType="float">
			<Value value="NaN" property="missing"/>
		</DataField>
		<DataField name="V21" optype="continuous" dataType="float">
			<Value value="NaN" property="missing"/>
		</DataField>
		<DataField name="V22" optype="continuous" dataType="float">
			<Value value="NaN" property="missing"/>
		</DataField>
		<DataField name="V24" optype="continuous" dataType="float">
			<Value value="NaN" property="missing"/>
		</DataField>
		<DataField name="V26" optype="continuous" dataType="float">
			<Value value="NaN" property="missing"/>
		</DataField>
		<DataField name="V27" optype="continuous" dataType="float">
			<Value value="NaN" property="missing"/>
		</DataField>
		<DataField name="V6_year" optype="continuous" dataType="float">
			<Value value="NaN" property="missing"/>
		</DataField>
		<DataField name="V7_year" optype="continuous" dataType="float">
			<Value value="NaN" property="missing"/>
		</DataField>
		<DataField name="V8_year" optype="continuous" dataType="float">
			<Value value="NaN" property="missing"/>
		</DataField>
	</DataDictionary>
	<MiningModel functionName="classification" algorithmName="XGBoost (GBTree)" x-mathContext="float">
		<MiningSchema>
			<MiningField name="isFraud" usageType="target"/>
			<MiningField name="COS_V6_day_"/>
			<MiningField name="COS_V6_month_"/>
			<MiningField name="COS_V7_month_"/>
			<MiningField name="COS_V8_day_"/>
			<MiningField name="COS_V8_month_"/>
			<MiningField name="COS_V23_day_"/>
			<MiningField name="COS_V23_month_"/>
			<MiningField name="SIN_V6_month_"/>
			<MiningField name="SIN_V7_month_"/>
			<MiningField name="SIN_V8_day_"/>
			<MiningField name="SIN_V8_month_"/>
			<MiningField name="SIN_V23_day_"/>
			<MiningField name="V1"/>
			<MiningField name="V2"/>
			<MiningField name="V3"/>
			<MiningField name="V4"/>
			<MiningField name="V9"/>
			<MiningField name="V10"/>
			<MiningField name="V12"/>
			<MiningField name="V13"/>
			<MiningField name="V16"/>
			<MiningField name="V19"/>
			<MiningField name="V21"/>
			<MiningField name="V22"/>
			<MiningField name="V24"/>
			<MiningField name="V26"/>
			<MiningField name="V27"/>
			<MiningField name="V6_year"/>
			<MiningField name="V7_year"/>
			<MiningField name="V8_year"/>
		</MiningSchema>
		<Segmentation multipleModelMethod="modelChain" missingPredictionTreatment="returnMissing">
			<Segment id="1">
				<True/>
				<MiningModel functionName="regression" x-mathContext="float">
					<MiningSchema>
						<MiningField name="COS_V6_day_"/>
						<MiningField name="COS_V6_month_"/>
						<MiningField name="COS_V7_month_"/>
						<MiningField name="COS_V8_day_"/>
						<MiningField name="COS_V8_month_"/>
						<MiningField name="COS_V23_day_"/>
						<MiningField name="COS_V23_month_"/>
						<MiningField name="SIN_V6_month_"/>
						<MiningField name="SIN_V7_month_"/>
						<MiningField name="SIN_V8_day_"/>
						<MiningField name="SIN_V8_month_"/>
						<MiningField name="SIN_V23_day_"/>
						<MiningField name="V1"/>
						<MiningField name="V2"/>
						<MiningField name="V3"/>
						<MiningField name="V4"/>
						<MiningField name="V9"/>
						<MiningField name="V10"/>
						<MiningField name="V12"/>
						<MiningField name="V13"/>
						<MiningField name="V16"/>
						<MiningField name="V19"/>
						<MiningField name="V21"/>
						<MiningField name="V22"/>
						<MiningField name="V24"/>
						<MiningField name="V26"/>
						<MiningField name="V27"/>
						<MiningField name="V6_year"/>
						<MiningField name="V7_year"/>
						<MiningField name="V8_year"/>
					</MiningSchema>
					<Output>
						<OutputField name="xgbValue" optype="continuous" dataType="float" isFinalResult="false"/>
					</Output>
					<Segmentation multipleModelMethod="sum" missingPredictionTreatment="returnMissing">
						<Segment id="1">
							<True/>
							<TreeModel functionName="regression" noTrueChildStrategy="returnLastPrediction" x-mathContext="float">
								<MiningSchema>
									<MiningField name="V1"/>
									<MiningField name="V4"/>
									<MiningField name="V9"/>
									<MiningField name="V10"/>
									<MiningField name="V13"/>
									<MiningField name="V19"/>
									<MiningField name="V21"/>
									<MiningField name="V26"/>
									<MiningField name="V6_year"/>
									<MiningField name="V7_year"/>
									<MiningField name="V8_year"/>
								</MiningSchema>
								<Node score="0.5998293">
									<True/>
									<Node score="0.5996509">
										<SimplePredicate field="V1" operator="greaterOrEqual" value="0.2241193"/>
										<Node score="0.57568663">
											<SimplePredicate field="V26" operator="greaterOrEqual" value="-0.08875973"/>
											<Node score="0.5994363">
												<SimplePredicate field="V26" operator="greaterOrEqual" value="-0.08002518"/>
											</Node>
											<Node score="0.5986806">
												<SimplePredicate field="V10" operator="greaterOrEqual" value="-1.3278413"/>
												<Node score="0.5987565">
													<SimplePredicate field="V13" operator="greaterOrEqual" value="0.034637976"/>
												</Node>
												<Node score="-0.46491364">
													<SimplePredicate field="V13" operator="greaterOrEqual" value="-0.025658386"/>
												</Node>
											</Node>
											<Node score="0.16363637">
												<SimplePredicate field="V6_year" operator="greaterOrEqual" value="1.7244191"/>
											</Node>
										</Node>
									</Node>
									<Node score="-0.07826087">
										<SimplePredicate field="V8_year" operator="greaterOrEqual" value="-0.27742732"/>
										<Node score="0.41189936">
											<SimplePredicate field="V7_year" operator="greaterOrEqual" value="-0.10036125"/>
											<Node score="0.57037044">
												<SimplePredicate field="V4" operator="greaterOrEqual" value="3.7136393"/>
												<Node score="-0.5661972">
													<SimplePredicate field="V10" operator="greaterOrEqual" value="-1.3206173"/>
												</Node>
											</Node>
											<Node score="0.5985816">
												<SimplePredicate field="V10" operator="greaterOrEqual" value="-0.5363928"/>
											</Node>
											<Node score="0.55506504">
												<SimplePredicate field="V19" operator="greaterOrEqual" value="-0.08691071"/>
											</Node>
										</Node>
										<Node score="0.5863637">
											<SimplePredicate field="V21" operator="greaterOrEqual" value="-0.30264294"/>
											<Node score="0.58969957">
												<SimplePredicate field="V10" operator="greaterOrEqual" value="-0.53485215"/>
											</Node>
											<Node score="-0.4037553">
												<SimplePredicate field="V26" operator="greaterOrEqual" value="-0.10186154"/>
											</Node>
										</Node>
										<Node score="0.4273782">
											<SimplePredicate field="V19" operator="greaterOrEqual" value="-0.052328713"/>
											<Node score="0.5871658">
												<SimplePredicate field="V10" operator="greaterOrEqual" value="-0.5315579"/>
											</Node>
										</Node>
										<Node score="0.41818184">
											<SimplePredicate field="V9" operator="greaterOrEqual" value="-0.9831164"/>
										</Node>
									</Node>
								</Node>
							</TreeModel>
						</Segment>
						<Segment id="2">
							<True/>
							<TreeModel functionName="regression" noTrueChildStrategy="returnLastPrediction" x-mathContext="float">
								<MiningSchema>
									<MiningField name="COS_V6_day_"/>
									<MiningField name="V1"/>
									<MiningField name="V4"/>
									<MiningField name="V10"/>
									<MiningField name="V13"/>
									<MiningField name="V26"/>
									<MiningField name="V27"/>
									<MiningField name="V7_year"/>
									<MiningField name="V8_year"/>
								</MiningSchema>
								<Node score="0.46452716">
									<True/>
									<Node score="0.4644056">
										<SimplePredicate field="V1" operator="greaterOrEqual" value="0.2241193"/>
										<Node score="0.45584702">
											<SimplePredicate field="V26" operator="greaterOrEqual" value="-0.08875973"/>
											<Node score="0.46425933">
												<SimplePredicate field="V26" operator="greaterOrEqual" value="-0.08002518"/>
											</Node>
											<Node score="0.46421543">
												<SimplePredicate field="V27" operator="greaterOrEqual" value="-1.5363536"/>
												<Node score="0.46412593">
													<SimplePredicate field="V13" operator="greaterOrEqual" value="0.034637976"/>
												</Node>
												<Node score="-0.3409176">
													<SimplePredicate field="V13" operator="greaterOrEqual" value="-0.025658386"/>
												</Node>
											</Node>
											<Node score="0.77416354">
												<SimplePredicate field="V10" operator="greaterOrEqual" value="-1.3293583"/>
											</Node>
										</Node>
									</Node>
									<Node score="0.47854123">
										<SimplePredicate field="V8_year" operator="greaterOrEqual" value="-0.27742732"/>
										<Node score="0.36807084">
											<SimplePredicate field="V7_year" operator="greaterOrEqual" value="-0.10036125"/>
											<Node score="0.44457048">
												<SimplePredicate field="V4" operator="greaterOrEqual" value="3.7136393"/>
												<Node score="-0.44175956">
													<SimplePredicate field="V10" operator="greaterOrEqual" value="-1.3206173"/>
												</Node>
											</Node>
											<Node score="0.4711637">
												<SimplePredicate field="COS_V6_day_" operator="greaterOrEqual" value="1.7929729"/>
											</Node>
											<Node score="0.4629226">
												<SimplePredicate field="V10" operator="greaterOrEqual" value="-0.53593874"/>
											</Node>
										</Node>
										<Node score="0.46488053">
											<SimplePredicate field="V10" operator="greaterOrEqual" value="-0.53485215"/>
										</Node>
										<Node score="-0.27881366">
											<SimplePredicate field="V26" operator="greaterOrEqual" value="-0.10186154"/>
											<Node score="0.6088802">
												<SimplePredicate field="V26" operator="greaterOrEqual" value="-0.049454294"/>
											</Node>
										</Node>
									</Node>
								</Node>
							</TreeModel>
						</Segment>
						<Segment id="3">
							<True/>
							<TreeModel functionName="regression" noTrueChildStrategy="returnLastPrediction" x-mathContext="float">
								<MiningSchema>
									<MiningField name="COS_V6_day_"/>
									<MiningField name="V1"/>
									<MiningField name="V4"/>
									<MiningField name="V10"/>
									<MiningField name="V13"/>
									<MiningField name="V19"/>
									<MiningField name="V21"/>
									<MiningField name="V22"/>
									<MiningField name="V26"/>
									<MiningField name="V7_year"/>
									<MiningField name="V8_year"/>
								</MiningSchema>
								<Node score="0.40333444">
									<True/>
									<Node score="0.40320832">
										<SimplePredicate field="V1" operator="greaterOrEqual" value="0.2241193"/>
										<Node score="0.38469875">
											<SimplePredicate field="V26" operator="greaterOrEqual" value="-0.08875973"/>
											<Node score="0.40305656">
												<SimplePredicate field="V26" operator="greaterOrEqual" value="-0.08002518"/>
											</Node>
											<Node score="0.966155">
												<SimplePredicate field="V22" operator="greaterOrEqual" value="2.8865192"/>
											</Node>
											<Node score="-0.28312716">
												<SimplePredicate field="V10" operator="greaterOrEqual" value="-1.3278413"/>
												<Node score="0.40254238">
													<SimplePredicate field="V13" operator="greaterOrEqual" value="0.034637976"/>
												</Node>
											</Node>
											<Node score="0.5091771">
												<SimplePredicate field="V10" operator="greaterOrEqual" value="-1.3319823"/>
											</Node>
										</Node>
									</Node>
									<Node score="0.49385157">
										<SimplePredicate field="V8_year" operator="greaterOrEqual" value="-0.27742732"/>
										<Node score="0.29920712">
											<SimplePredicate field="V7_year" operator="greaterOrEqual" value="-0.10036125"/>
											<Node score="0.38323632">
												<SimplePredicate field="V4" operator="greaterOrEqual" value="3.7136393"/>
												<Node score="-0.38049772">
													<SimplePredicate field="V10" operator="greaterOrEqual" value="-1.3206173"/>
												</Node>
											</Node>
											<Node score="0.40663642">
												<SimplePredicate field="COS_V6_day_" operator="greaterOrEqual" value="1.7929729"/>
											</Node>
											<Node score="0.4015731">
												<SimplePredicate field="V10" operator="greaterOrEqual" value="-0.53593874"/>
											</Node>
										</Node>
										<Node score="0.36646253">
											<SimplePredicate field="V21" operator="greaterOrEqual" value="-0.30264294"/>
											<Node score="-0.2472059">
												<SimplePredicate field="V10" operator="greaterOrEqual" value="-1.3183398"/>
												<Node score="0.39548808">
													<SimplePredicate field="V10" operator="greaterOrEqual" value="-0.53485215"/>
												</Node>
											</Node>
											<Node score="0.8034008">
												<SimplePredicate field="V26" operator="greaterOrEqual" value="-0.10186154"/>
											</Node>
										</Node>
										<Node score="-0.01407641">
											<SimplePredicate field="V10" operator="greaterOrEqual" value="-1.3096256"/>
											<Node score="0.2898852">
												<SimplePredicate field="V19" operator="greaterOrEqual" value="-0.049226508"/>
											</Node>
										</Node>
									</Node>
								</Node>
							</TreeModel>
						</Segment>
						<Segment id="4">
							<True/>
							<TreeModel functionName="regression" noTrueChildStrategy="returnLastPrediction" x-mathContext="float">
								<MiningSchema>
									<MiningField name="V1"/>
									<MiningField name="V4"/>
									<MiningField name="V10"/>
									<MiningField name="V13"/>
									<MiningField name="V26"/>
									<MiningField name="V27"/>
									<MiningField name="V7_year"/>
									<MiningField name="V8_year"/>
								</MiningSchema>
								<Node score="0.36896467">
									<True/>
									<Node score="0.36881402">
										<SimplePredicate field="V1" operator="greaterOrEqual" value="0.2241193"/>
										<Node score="0.3641944">
											<SimplePredicate field="V26" operator="greaterOrEqual" value="-0.08875973"/>
											<Node score="0.36863294">
												<SimplePredicate field="V26" operator="greaterOrEqual" value="-0.08002518"/>
											</Node>
											<Node score="0.33632892">
												<SimplePredicate field="V13" operator="greaterOrEqual" value="0.023918623"/>
												<Node score="0.40520084">
													<SimplePredicate field="V27" operator="greaterOrEqual" value="-1.5363536"/>
													<Node score="-0.2371433">
														<SimplePredicate field="V10" operator="greaterOrEqual" value="-1.3278413"/>
													</Node>
												</Node>
												<Node score="0.5898093">
													<SimplePredicate field="V10" operator="greaterOrEqual" value="-1.3293583"/>
												</Node>
											</Node>
											<Node score="0.43643802">
												<SimplePredicate field="V10" operator="greaterOrEqual" value="-1.328477"/>
											</Node>
										</Node>
									</Node>
									<Node score="0.39799765">
										<SimplePredicate field="V8_year" operator="greaterOrEqual" value="-0.27742732"/>
										<Node score="0.37957287">
											<SimplePredicate field="V7_year" operator="greaterOrEqual" value="-0.10036125"/>
											<Node score="0.24513237">
												<SimplePredicate field="V26" operator="greaterOrEqual" value="-0.08875973"/>
												<Node score="-0.34281743">
													<SimplePredicate field="V4" operator="greaterOrEqual" value="3.7136393"/>
												</Node>
												<Node score="0.36689213">
													<SimplePredicate field="V10" operator="greaterOrEqual" value="-0.5363928"/>
												</Node>
											</Node>
										</Node>
										<Node score="0.3661101">
											<SimplePredicate field="V26" operator="greaterOrEqual" value="-0.10186154"/>
											<Node score="0.37236568">
												<SimplePredicate field="V10" operator="greaterOrEqual" value="-0.53485215"/>
											</Node>
											<Node score="-0.21509379">
												<SimplePredicate field="V10" operator="greaterOrEqual" value="-1.3005455"/>
											</Node>
										</Node>
									</Node>
								</Node>
							</TreeModel>
						</Segment>
						<Segment id="5">
							<True/>
							<TreeModel functionName="regression" noTrueChildStrategy="returnLastPrediction" x-mathContext="float">
								<MiningSchema>
									<MiningField name="COS_V6_day_"/>
									<MiningField name="SIN_V8_day_"/>
									<MiningField name="V1"/>
									<MiningField name="V4"/>
									<MiningField name="V10"/>
									<MiningField name="V13"/>
									<MiningField name="V19"/>
									<MiningField name="V21"/>
									<MiningField name="V22"/>
									<MiningField name="V26"/>
									<MiningField name="V7_year"/>
									<MiningField name="V8_year"/>
								</MiningSchema>
								<Node score="0.34759623">
									<True/>
									<Node score="0.34740612">
										<SimplePredicate field="V1" operator="greaterOrEqual" value="0.2241193"/>
										<Node score="0.38401282">
											<SimplePredicate field="V26" operator="greaterOrEqual" value="-0.08875973"/>
											<Node score="0.6211162">
												<SimplePredicate field="V22" operator="greaterOrEqual" value="2.8865192"/>
											</Node>
											<Node score="0.3471777">
												<SimplePredicate field="V26" operator="greaterOrEqual" value="-0.08002518"/>
											</Node>
											<Node score="0.38448727">
												<SimplePredicate field="V13" operator="greaterOrEqual" value="0.034637976"/>
											</Node>
											<Node score="-0.19822757">
												<SimplePredicate field="V13" operator="greaterOrEqual" value="0.023918623"/>
											</Node>
										</Node>
									</Node>
									<Node score="-0.039589845">
										<SimplePredicate field="V8_year" operator="greaterOrEqual" value="-0.27742732"/>
										<Node score="0.35927877">
											<SimplePredicate field="V7_year" operator="greaterOrEqual" value="0.12726818"/>
											<Node score="0.35153604">
												<SimplePredicate field="COS_V6_day_" operator="greaterOrEqual" value="1.7929729"/>
												<Node score="0.30351195">
													<SimplePredicate field="V4" operator="greaterOrEqual" value="3.7136393"/>
													<Node score="-0.27598956">
														<SimplePredicate field="V10" operator="greaterOrEqual" value="-1.2510229"/>
													</Node>
												</Node>
											</Node>
											<Node score="0.3446059">
												<SimplePredicate field="V10" operator="greaterOrEqual" value="-0.53593874"/>
											</Node>
											<Node score="0.14097537">
												<SimplePredicate field="V26" operator="greaterOrEqual" value="-0.093127"/>
											</Node>
										</Node>
										<Node score="0.3632594">
											<SimplePredicate field="V21" operator="greaterOrEqual" value="-0.30264294"/>
											<Node score="0.6052328">
												<SimplePredicate field="V26" operator="greaterOrEqual" value="-0.049454294"/>
												<Node score="0.2531948">
													<SimplePredicate field="V7_year" operator="greaterOrEqual" value="-0.10036125"/>
												</Node>
											</Node>
											<Node score="-0.18323775">
												<SimplePredicate field="V26" operator="greaterOrEqual" value="-0.10186154"/>
											</Node>
										</Node>
										<Node score="0.3651578">
											<SimplePredicate field="V19" operator="greaterOrEqual" value="-0.052328713"/>
											<Node score="0.2173598">
												<SimplePredicate field="SIN_V8_day_" operator="greaterOrEqual" value="-0.5541388"/>
											</Node>
										</Node>
										<Node score="0.28158328">
											<SimplePredicate field="V10" operator="greaterOrEqual" value="-0.95651555"/>
										</Node>
									</Node>
								</Node>
							</TreeModel>
						</Segment>
						<Segment id="6">
							<True/>
							<TreeModel functionName="regression" noTrueChildStrategy="returnLastPrediction" x-mathContext="float">
								<MiningSchema>
									<MiningField name="COS_V6_day_"/>
									<MiningField name="COS_V8_month_"/>
									<MiningField name="V1"/>
									<MiningField name="V9"/>
									<MiningField name="V10"/>
									<MiningField name="V13"/>
									<MiningField name="V16"/>
									<MiningField name="V19"/>
									<MiningField name="V26"/>
									<MiningField name="V27"/>
									<MiningField name="V7_year"/>
									<MiningField name="V8_year"/>
								</MiningSchema>
								<Node score="0.33350763">
									<True/>
									<Node score="0.32864508">
										<SimplePredicate field="V1" operator="greaterOrEqual" value="0.2241193"/>
										<Node score="0.33178112">
											<SimplePredicate field="V8_year" operator="greaterOrEqual" value="-0.50868773"/>
											<Node score="0.3134992">
												<SimplePredicate field="V26" operator="greaterOrEqual" value="-0.08875973"/>
												<Node score="0.4890901">
													<SimplePredicate field="V10" operator="greaterOrEqual" value="-1.3276364"/>
													<Node score="0.3305928">
														<SimplePredicate field="V26" operator="greaterOrEqual" value="-0.06692337"/>
													</Node>
													<Node score="-0.24791303">
														<SimplePredicate field="V27" operator="greaterOrEqual" value="-2.3001482"/>
													</Node>
												</Node>
												<Node score="0.3779273">
													<SimplePredicate field="V7_year" operator="greaterOrEqual" value="-0.10036125"/>
													<Node score="0.046298325">
														<SimplePredicate field="V9" operator="greaterOrEqual" value="1.8232564"/>
													</Node>
												</Node>
												<Node score="-0.46114418">
													<SimplePredicate field="V9" operator="greaterOrEqual" value="0.33630383"/>
												</Node>
											</Node>
										</Node>
										<Node score="0.33967656">
											<SimplePredicate field="V16" operator="greaterOrEqual" value="-0.5366409"/>
											<Node score="0.41024694">
												<SimplePredicate field="V16" operator="greaterOrEqual" value="-0.149274"/>
												<Node score="0.3238529">
													<SimplePredicate field="V10" operator="greaterOrEqual" value="-1.3314283"/>
												</Node>
											</Node>
											<Node score="1.6613457">
												<SimplePredicate field="V13" operator="greaterOrEqual" value="-0.010919275"/>
												<Node score="0.32904762">
													<SimplePredicate field="V13" operator="greaterOrEqual" value="0.042677492"/>
												</Node>
											</Node>
										</Node>
										<Node score="0.33296323">
											<SimplePredicate field="V16" operator="greaterOrEqual" value="-0.5894636"/>
											<Node score="0.49459115">
												<SimplePredicate field="V26" operator="greaterOrEqual" value="-0.08875973"/>
												<Node score="-0.08579649">
													<SimplePredicate field="V27" operator="greaterOrEqual" value="-2.3001482"/>
												</Node>
											</Node>
										</Node>
										<Node score="0.32578552">
											<SimplePredicate field="V16" operator="greaterOrEqual" value="-0.73032427"/>
											<Node score="1.2802111">
												<SimplePredicate field="V13" operator="greaterOrEqual" value="0.010519432"/>
											</Node>
										</Node>
									</Node>
									<Node score="0.343947">
										<SimplePredicate field="V8_year" operator="greaterOrEqual" value="-0.27742732"/>
										<Node score="0.5995663">
											<SimplePredicate field="V16" operator="greaterOrEqual" value="-0.5366409"/>
											<Node score="-0.6002329">
												<SimplePredicate field="V8_year" operator="greaterOrEqual" value="1.5726559"/>
												<Node score="0.3184151">
													<SimplePredicate field="V19" operator="greaterOrEqual" value="-0.056371756"/>
													<Node score="0.14973776">
														<SimplePredicate field="COS_V8_month_" operator="greaterOrEqual" value="0.27233917"/>
													</Node>
												</Node>
												<Node score="0.28922686">
													<SimplePredicate field="COS_V6_day_" operator="greaterOrEqual" value="1.7929729"/>
												</Node>
											</Node>
											<Node score="0.32147536">
												<SimplePredicate field="V7_year" operator="greaterOrEqual" value="-0.10036125"/>
												<Node score="0.23818265">
													<SimplePredicate field="COS_V8_month_" operator="greaterOrEqual" value="0.942547"/>
												</Node>
											</Node>
											<Node score="0.3151251">
												<SimplePredicate field="V10" operator="greaterOrEqual" value="-0.6179551"/>
											</Node>
										</Node>
										<Node score="0.33818218">
											<SimplePredicate field="V10" operator="greaterOrEqual" value="-0.535606"/>
										</Node>
										<Node score="-0.16912466">
											<SimplePredicate field="V26" operator="greaterOrEqual" value="-0.10186154"/>
											<Node score="0.39448878">
												<SimplePredicate field="V26" operator="greaterOrEqual" value="-0.049454294"/>
											</Node>
										</Node>
									</Node>
								</Node>
							</TreeModel>
						</Segment>
						<Segment id="7">
							<True/>
							<TreeModel functionName="regression" noTrueChildStrategy="returnLastPrediction" x-mathContext="float">
								<MiningSchema>
									<MiningField name="COS_V6_day_"/>
									<MiningField name="COS_V8_month_"/>
									<MiningField name="SIN_V8_month_"/>
									<MiningField name="V1"/>
									<MiningField name="V4"/>
									<MiningField name="V10"/>
									<MiningField name="V13"/>
									<MiningField name="V16"/>
									<MiningField name="V19"/>
									<MiningField name="V22"/>
									<MiningField name="V26"/>
									<MiningField name="V7_year"/>
									<MiningField name="V8_year"/>
								</MiningSchema>
								<Node score="0.32385832">
									<True/>
									<Node score="0.320591">
										<SimplePredicate field="V1" operator="greaterOrEqual" value="0.2241193"/>
										<Node score="0.3233425">
											<SimplePredicate field="V10" operator="greaterOrEqual" value="-1.3278413"/>
											<Node score="0.495716">
												<SimplePredicate field="V22" operator="greaterOrEqual" value="2.8865192"/>
											</Node>
											<Node score="0.33253372">
												<SimplePredicate field="V26" operator="greaterOrEqual" value="-0.08002518"/>
											</Node>
											<Node score="-0.15191539">
												<SimplePredicate field="V26" operator="greaterOrEqual" value="-0.08875973"/>
												<Node score="0.36602843">
													<SimplePredicate field="V13" operator="greaterOrEqual" value="0.034637976"/>
												</Node>
											</Node>
										</Node>
										<Node score="0.4083398">
											<SimplePredicate field="V10" operator="greaterOrEqual" value="-1.3279128"/>
										</Node>
										<Node score="-0.4292734">
											<SimplePredicate field="V10" operator="greaterOrEqual" value="-1.3287916"/>
										</Node>
										<Node score="0.31941628">
											<SimplePredicate field="V10" operator="greaterOrEqual" value="-1.3311281"/>
											<Node score="-0.67563426">
												<SimplePredicate field="V26" operator="greaterOrEqual" value="-0.18920694"/>
											</Node>
										</Node>
										<Node score="0.41294408">
											<SimplePredicate field="V10" operator="greaterOrEqual" value="-1.331136"/>
										</Node>
									</Node>
									<Node score="0.3967602">
										<SimplePredicate field="V8_year" operator="greaterOrEqual" value="-0.27742732"/>
										<Node score="0.45485726">
											<SimplePredicate field="V16" operator="greaterOrEqual" value="-0.5366409"/>
											<Node score="-0.30865714">
												<SimplePredicate field="V8_year" operator="greaterOrEqual" value="1.5726559"/>
												<Node score="0.32384595">
													<SimplePredicate field="COS_V6_day_" operator="greaterOrEqual" value="1.7929729"/>
													<Node score="-0.13460875">
														<SimplePredicate field="V4" operator="greaterOrEqual" value="3.7136393"/>
													</Node>
												</Node>
												<Node score="0.10638345">
													<SimplePredicate field="V19" operator="greaterOrEqual" value="-0.10270146"/>
												</Node>
											</Node>
											<Node score="0.28265554">
												<SimplePredicate field="SIN_V8_month_" operator="greaterOrEqual" value="0.4948496"/>
												<Node score="0.040373113">
													<SimplePredicate field="COS_V8_month_" operator="greaterOrEqual" value="0.7275814"/>
												</Node>
											</Node>
											<Node score="0.3124231">
												<SimplePredicate field="V7_year" operator="greaterOrEqual" value="-0.10036125"/>
											</Node>
										</Node>
										<Node score="-0.13195962">
											<SimplePredicate field="V10" operator="greaterOrEqual" value="-1.3194004"/>
											<Node score="0.32572567">
												<SimplePredicate field="V10" operator="greaterOrEqual" value="-0.535606"/>
											</Node>
											<Node score="0.36551508">
												<SimplePredicate field="V26" operator="greaterOrEqual" value="-0.049454294"/>
											</Node>
										</Node>
									</Node>
								</Node>
							</TreeModel>
						</Segment>
						<Segment id="8">
							<True/>
							<TreeModel functionName="regression" noTrueChildStrategy="returnLastPrediction" x-mathContext="float">
								<MiningSchema>
									<MiningField name="COS_V6_day_"/>
									<MiningField name="COS_V8_month_"/>
									<MiningField name="V1"/>
									<MiningField name="V4"/>
									<MiningField name="V10"/>
									<MiningField name="V13"/>
									<MiningField name="V16"/>
									<MiningField name="V26"/>
									<MiningField name="V27"/>
									<MiningField name="V7_year"/>
									<MiningField name="V8_year"/>
								</MiningSchema>
								<Node score="0.3170662">
									<True/>
									<Node score="0.3097477">
										<SimplePredicate field="V1" operator="greaterOrEqual" value="0.2241193"/>
										<Node score="0.43560633">
											<SimplePredicate field="V13" operator="greaterOrEqual" value="0.023918623"/>
											<Node score="-0.32315657">
												<SimplePredicate field="V8_year" operator="greaterOrEqual" value="-0.50868773"/>
												<Node score="0.43082383">
													<SimplePredicate field="V7_year" operator="greaterOrEqual" value="-0.10036125"/>
													<Node score="1.7588687">
														<SimplePredicate field="V16" operator="greaterOrEqual" value="1.6643071"/>
														<Node score="0.32723978">
															<SimplePredicate field="V16" operator="greaterOrEqual" value="1.7875602"/>
														</Node>
													</Node>
													<Node score="-0.12364535">
														<SimplePredicate field="V27" operator="greaterOrEqual" value="-1.5363536"/>
													</Node>
												</Node>
												<Node score="1.1966157">
													<SimplePredicate field="V16" operator="greaterOrEqual" value="-0.5366409"/>
													<Node score="0.17921202">
														<SimplePredicate field="V16" operator="greaterOrEqual" value="-0.13166642"/>
													</Node>
												</Node>
												<Node score="0.3669792">
													<SimplePredicate field="COS_V6_day_" operator="greaterOrEqual" value="1.7929729"/>
												</Node>
											</Node>
											<Node score="0.6014273">
												<SimplePredicate field="V16" operator="greaterOrEqual" value="-0.5366409"/>
												<Node score="0.3398957">
													<SimplePredicate field="V16" operator="greaterOrEqual" value="-0.149274"/>
												</Node>
												<Node score="0.29487723">
													<SimplePredicate field="V13" operator="greaterOrEqual" value="0.042677492"/>
												</Node>
											</Node>
											<Node score="-0.06284926">
												<SimplePredicate field="V27" operator="greaterOrEqual" value="-1.5363536"/>
												<Node score="0.3243548">
													<SimplePredicate field="V26" operator="greaterOrEqual" value="-0.08002518"/>
												</Node>
											</Node>
										</Node>
										<Node score="0.37453613">
											<SimplePredicate field="V10" operator="greaterOrEqual" value="-1.3316534"/>
										</Node>
									</Node>
									<Node score="0.5494619">
										<SimplePredicate field="V8_year" operator="greaterOrEqual" value="-0.27742732"/>
										<Node score="0.28763837">
											<SimplePredicate field="V16" operator="greaterOrEqual" value="-0.5366409"/>
											<Node score="-0.038874">
												<SimplePredicate field="COS_V8_month_" operator="greaterOrEqual" value="0.6245498"/>
												<Node score="0.32261518">
													<SimplePredicate field="COS_V6_day_" operator="greaterOrEqual" value="1.7929729"/>
													<Node score="-0.069564715">
														<SimplePredicate field="V4" operator="greaterOrEqual" value="3.7136393"/>
													</Node>
												</Node>
												<Node score="0.3069976">
													<SimplePredicate field="V10" operator="greaterOrEqual" value="-0.5357097"/>
												</Node>
											</Node>
											<Node score="0.20506233">
												<SimplePredicate field="V8_year" operator="greaterOrEqual" value="1.8039165"/>
												<Node score="-0.25459597">
													<SimplePredicate field="V26" operator="greaterOrEqual" value="-0.10186154"/>
												</Node>
											</Node>
											<Node score="0.039370723">
												<SimplePredicate field="V4" operator="greaterOrEqual" value="3.7136393"/>
											</Node>
										</Node>
										<Node score="0.8188527">
											<SimplePredicate field="V13" operator="greaterOrEqual" value="0.034637976"/>
											<Node score="0.33170992">
												<SimplePredicate field="V7_year" operator="greaterOrEqual" value="-0.10036125"/>
											</Node>
											<Node score="0.28178042">
												<SimplePredicate field="V10" operator="greaterOrEqual" value="-0.53684056"/>
											</Node>
										</Node>
										<Node score="0.33093727">
											<SimplePredicate field="V13" operator="greaterOrEqual" value="0.026598461"/>
											<Node score="-0.116724156">
												<SimplePredicate field="V26" operator="greaterOrEqual" value="-0.10186154"/>
											</Node>
										</Node>
										<Node score="0.33709583">
											<SimplePredicate field="V7_year" operator="greaterOrEqual" value="-0.10036125"/>
										</Node>
									</Node>
								</Node>
							</TreeModel>
						</Segment>
						<Segment id="9">
							<True/>
							<TreeModel functionName="regression" noTrueChildStrategy="returnLastPrediction" x-mathContext="float">
								<MiningSchema>
									<MiningField name="V3"/>
									<MiningField name="V10"/>
									<MiningField name="V13"/>
									<MiningField name="V22"/>
									<MiningField name="V26"/>
									<MiningField name="V27"/>
									<MiningField name="V8_year"/>
								</MiningSchema>
								<Node score="0.31764612">
									<True/>
									<Node score="0.3150941">
										<SimplePredicate field="V26" operator="greaterOrEqual" value="-0.08875973"/>
										<Node score="0.34894937">
											<SimplePredicate field="V10" operator="greaterOrEqual" value="-1.3243235"/>
											<Node score="-0.12502159">
												<SimplePredicate field="V13" operator="greaterOrEqual" value="0.03195814"/>
												<Node score="0.32267526">
													<SimplePredicate field="V26" operator="greaterOrEqual" value="-0.08002518"/>
												</Node>
												<Node score="-0.32209656">
													<SimplePredicate field="V13" operator="greaterOrEqual" value="0.034637976"/>
													<Node score="0.34928098">
														<SimplePredicate field="V27" operator="greaterOrEqual" value="-2.3001482"/>
													</Node>
												</Node>
												<Node score="0.4327802">
													<SimplePredicate field="V22" operator="greaterOrEqual" value="2.8865192"/>
												</Node>
											</Node>
										</Node>
										<Node score="0.3765889">
											<SimplePredicate field="V3" operator="greaterOrEqual" value="0.113655925"/>
										</Node>
										<Node score="-0.17240529">
											<SimplePredicate field="V10" operator="greaterOrEqual" value="-1.3311281"/>
											<Node score="0.36657357">
												<SimplePredicate field="V10" operator="greaterOrEqual" value="-1.3280683"/>
												<Node score="0.24167286">
													<SimplePredicate field="V10" operator="greaterOrEqual" value="-1.3277879"/>
												</Node>
											</Node>
											<Node score="-0.53871095">
												<SimplePredicate field="V8_year" operator="greaterOrEqual" value="-0.50868773"/>
											</Node>
										</Node>
										<Node score="0.37458092">
											<SimplePredicate field="V10" operator="greaterOrEqual" value="-1.331136"/>
										</Node>
										<Node score="-0.38470492">
											<SimplePredicate field="V10" operator="greaterOrEqual" value="-1.3315306"/>
										</Node>
									</Node>
								</Node>
							</TreeModel>
						</Segment>
						<Segment id="10">
							<True/>
							<TreeModel functionName="regression" noTrueChildStrategy="returnLastPrediction" x-mathContext="float">
								<MiningSchema>
									<MiningField name="V1"/>
									<MiningField name="V10"/>
									<MiningField name="V13"/>
									<MiningField name="V16"/>
									<MiningField name="V26"/>
									<MiningField name="V27"/>
								</MiningSchema>
								<Node score="0.31264308">
									<True/>
									<Node score="0.4094884">
										<SimplePredicate field="V26" operator="greaterOrEqual" value="-0.08875973"/>
										<Node score="0.31481957">
											<SimplePredicate field="V27" operator="greaterOrEqual" value="-3.063943"/>
											<Node score="0.2867355">
												<SimplePredicate field="V16" operator="greaterOrEqual" value="-0.5894636"/>
												<Node score="0.33648518">
													<SimplePredicate field="V10" operator="greaterOrEqual" value="-1.3243235"/>
													<Node score="-0.088869035">
														<SimplePredicate field="V13" operator="greaterOrEqual" value="0.03195814"/>
														<Node score="0.3310669">
															<SimplePredicate field="V13" operator="greaterOrEqual" value="0.034637976"/>
														</Node>
													</Node>
												</Node>
												<Node score="0.30981934">
													<SimplePredicate field="V10" operator="greaterOrEqual" value="-1.3277879"/>
													<Node score="-0.14631891">
														<SimplePredicate field="V1" operator="greaterOrEqual" value="-0.5048437"/>
													</Node>
												</Node>
												<Node score="0.35186023">
													<SimplePredicate field="V10" operator="greaterOrEqual" value="-1.3279095"/>
												</Node>
											</Node>
											<Node score="0.3350486">
												<SimplePredicate field="V16" operator="greaterOrEqual" value="-0.73032427"/>
												<Node score="0.41493136">
													<SimplePredicate field="V13" operator="greaterOrEqual" value="-0.025658386"/>
													<Node score="0.83601177">
														<SimplePredicate field="V1" operator="greaterOrEqual" value="0.2241193"/>
													</Node>
												</Node>
											</Node>
										</Node>
									</Node>
								</Node>
							</TreeModel>
						</Segment>
						<Segment id="11">
							<True/>
							<TreeModel functionName="regression" noTrueChildStrategy="returnLastPrediction" x-mathContext="float">
								<MiningSchema>
									<MiningField name="V4"/>
									<MiningField name="V13"/>
									<MiningField name="V22"/>
									<MiningField name="V24"/>
									<MiningField name="V26"/>
									<MiningField name="V27"/>
								</MiningSchema>
								<Node score="0.30892903">
									<True/>
									<Node score="0.37898195">
										<SimplePredicate field="V26" operator="greaterOrEqual" value="-0.08875973"/>
										<Node score="0.31743988">
											<SimplePredicate field="V26" operator="greaterOrEqual" value="-0.08002518"/>
										</Node>
										<Node score="0.30019915">
											<SimplePredicate field="V22" operator="greaterOrEqual" value="1.8076775"/>
											<Node score="-0.22562705">
												<SimplePredicate field="V4" operator="greaterOrEqual" value="3.7136393"/>
											</Node>
											<Node score="0.39913365">
												<SimplePredicate field="V22" operator="greaterOrEqual" value="2.8865192"/>
											</Node>
											<Node score="0.0045957062">
												<SimplePredicate field="V24" operator="greaterOrEqual" value="0.27692258"/>
											</Node>
										</Node>
										<Node score="0.32766384">
											<SimplePredicate field="V27" operator="greaterOrEqual" value="-3.063943"/>
											<Node score="-0.08131854">
												<SimplePredicate field="V13" operator="greaterOrEqual" value="0.03195814"/>
												<Node score="0.3177332">
													<SimplePredicate field="V13" operator="greaterOrEqual" value="0.034637976"/>
												</Node>
											</Node>
										</Node>
									</Node>
								</Node>
							</TreeModel>
						</Segment>
						<Segment id="12">
							<True/>
							<TreeModel functionName="regression" noTrueChildStrategy="returnLastPrediction" x-mathContext="float">
								<MiningSchema>
									<MiningField name="COS_V6_day_"/>
									<MiningField name="COS_V7_month_"/>
									<MiningField name="COS_V8_day_"/>
									<MiningField name="V1"/>
									<MiningField name="V4"/>
									<MiningField name="V10"/>
									<MiningField name="V13"/>
									<MiningField name="V16"/>
									<MiningField name="V22"/>
									<MiningField name="V26"/>
									<MiningField name="V6_year"/>
									<MiningField name="V8_year"/>
								</MiningSchema>
								<Node score="0.30598038">
									<True/>
									<Node score="0.30939096">
										<SimplePredicate field="V10" operator="greaterOrEqual" value="-1.3229475"/>
										<Node score="0.3049497">
											<SimplePredicate field="V8_year" operator="greaterOrEqual" value="-0.50868773"/>
											<Node score="0.4715122">
												<SimplePredicate field="COS_V6_day_" operator="greaterOrEqual" value="1.7929729"/>
												<Node score="-0.3268476">
													<SimplePredicate field="V4" operator="greaterOrEqual" value="3.7136393"/>
												</Node>
												<Node score="1.1689657">
													<SimplePredicate field="V1" operator="greaterOrEqual" value="0.2241193"/>
													<Node score="0.2537972">
														<SimplePredicate field="V26" operator="greaterOrEqual" value="-0.06692337"/>
													</Node>
												</Node>
												<Node score="0.31338477">
													<SimplePredicate field="V6_year" operator="greaterOrEqual" value="-0.14023805"/>
												</Node>
											</Node>
											<Node score="0.3359719">
												<SimplePredicate field="V16" operator="greaterOrEqual" value="1.6643071"/>
												<Node score="0.18147187">
													<SimplePredicate field="V1" operator="greaterOrEqual" value="-0.5048437"/>
													<Node score="0.68726516">
														<SimplePredicate field="V26" operator="greaterOrEqual" value="-0.45124316"/>
													</Node>
												</Node>
											</Node>
											<Node score="0.31628084">
												<SimplePredicate field="V26" operator="greaterOrEqual" value="-0.07565792"/>
											</Node>
											<Node score="-0.14577712">
												<SimplePredicate field="V26" operator="greaterOrEqual" value="-0.08875973"/>
											</Node>
										</Node>
										<Node score="0.3112194">
											<SimplePredicate field="V16" operator="greaterOrEqual" value="-0.5366409"/>
											<Node score="0.274471">
												<SimplePredicate field="V1" operator="greaterOrEqual" value="-0.5048437"/>
												<Node score="0.2638995">
													<SimplePredicate field="V26" operator="greaterOrEqual" value="-0.45124316"/>
													<Node score="0.51959676">
														<SimplePredicate field="V13" operator="greaterOrEqual" value="-0.8363095"/>
													</Node>
												</Node>
											</Node>
										</Node>
										<Node score="0.5255883">
											<SimplePredicate field="V1" operator="greaterOrEqual" value="0.2241193"/>
											<Node score="-0.033033337">
												<SimplePredicate field="V16" operator="greaterOrEqual" value="-0.5894636"/>
												<Node score="0.35477734">
													<SimplePredicate field="V22" operator="greaterOrEqual" value="2.3470984"/>
												</Node>
											</Node>
											<Node score="0.2564435">
												<SimplePredicate field="V26" operator="greaterOrEqual" value="0.020422034"/>
											</Node>
										</Node>
									</Node>
									<Node score="0.30335924">
										<SimplePredicate field="V10" operator="greaterOrEqual" value="-1.3277879"/>
										<Node score="-0.24833137">
											<SimplePredicate field="V1" operator="greaterOrEqual" value="-0.1403622"/>
											<Node score="0.22076786">
												<SimplePredicate field="COS_V8_day_" operator="greaterOrEqual" value="1.5913047"/>
											</Node>
											<Node score="0.010037357">
												<SimplePredicate field="COS_V7_month_" operator="greaterOrEqual" value="0.8018474"/>
											</Node>
										</Node>
									</Node>
									<Node score="0.33806568">
										<SimplePredicate field="V10" operator="greaterOrEqual" value="-1.3280683"/>
									</Node>
									<Node score="-0.29397672">
										<SimplePredicate field="V10" operator="greaterOrEqual" value="-1.3287916"/>
									</Node>
									<Node score="0.29854533">
										<SimplePredicate field="V10" operator="greaterOrEqual" value="-1.3311281"/>
										<Node score="-0.35502243">
											<SimplePredicate field="V26" operator="greaterOrEqual" value="-0.18920694"/>
										</Node>
									</Node>
									<Node score="0.07120565">
										<SimplePredicate field="V6_year" operator="greaterOrEqual" value="1.7244191"/>
									</Node>
								</Node>
							</TreeModel>
						</Segment>
						<Segment id="13">
							<True/>
							<TreeModel functionName="regression" noTrueChildStrategy="returnLastPrediction" x-mathContext="float">
								<MiningSchema>
									<MiningField name="V4"/>
									<MiningField name="V10"/>
									<MiningField name="V13"/>
									<MiningField name="V22"/>
									<MiningField name="V26"/>
									<MiningField name="V27"/>
								</MiningSchema>
								<Node score="0.30472076">
									<True/>
									<Node score="0.36374757">
										<SimplePredicate field="V26" operator="greaterOrEqual" value="-0.08875973"/>
										<Node score="0.30995053">
											<SimplePredicate field="V26" operator="greaterOrEqual" value="-0.08002518"/>
										</Node>
										<Node score="0.3230378">
											<SimplePredicate field="V27" operator="greaterOrEqual" value="-3.063943"/>
											<Node score="0.36347443">
												<SimplePredicate field="V22" operator="greaterOrEqual" value="1.8076775"/>
												<Node score="-0.18605322">
													<SimplePredicate field="V4" operator="greaterOrEqual" value="3.7136393"/>
												</Node>
											</Node>
											<Node score="0.27332976">
												<SimplePredicate field="V13" operator="greaterOrEqual" value="0.03195814"/>
												<Node score="-0.060833056">
													<SimplePredicate field="V10" operator="greaterOrEqual" value="-1.3277879"/>
												</Node>
											</Node>
										</Node>
									</Node>
								</Node>
							</TreeModel>
						</Segment>
						<Segment id="14">
							<True/>
							<TreeModel functionName="regression" noTrueChildStrategy="returnLastPrediction" x-mathContext="float">
								<MiningSchema>
									<MiningField name="COS_V6_day_"/>
									<MiningField name="V1"/>
									<MiningField name="V12"/>
									<MiningField name="V13"/>
									<MiningField name="V16"/>
									<MiningField name="V21"/>
									<MiningField name="V26"/>
									<MiningField name="V7_year"/>
									<MiningField name="V8_year"/>
								</MiningSchema>
								<Node score="0.3079009">
									<True/>
									<Node score="-0.28665206">
										<SimplePredicate field="V13" operator="greaterOrEqual" value="0.034637976"/>
										<Node score="0.32504714">
											<SimplePredicate field="V12" operator="greaterOrEqual" value="-0.21681671"/>
										</Node>
									</Node>
									<Node score="0.30266404">
										<SimplePredicate field="V1" operator="greaterOrEqual" value="-1.9627699"/>
										<Node score="-0.011872155">
											<SimplePredicate field="V26" operator="greaterOrEqual" value="-0.08875973"/>
											<Node score="0.30643663">
												<SimplePredicate field="V26" operator="greaterOrEqual" value="-0.08002518"/>
											</Node>
											<Node score="-0.11702932">
												<SimplePredicate field="V8_year" operator="greaterOrEqual" value="-0.50868773"/>
												<Node score="0.21584707">
													<SimplePredicate field="COS_V6_day_" operator="greaterOrEqual" value="1.7929729"/>
												</Node>
											</Node>
											<Node score="0.42012393">
												<SimplePredicate field="V16" operator="greaterOrEqual" value="-0.5366409"/>
											</Node>
										</Node>
									</Node>
									<Node score="0.48931494">
										<SimplePredicate field="V8_year" operator="greaterOrEqual" value="-0.27742732"/>
										<Node score="0.33383358">
											<SimplePredicate field="V7_year" operator="greaterOrEqual" value="-0.10036125"/>
										</Node>
										<Node score="0.36024654">
											<SimplePredicate field="V16" operator="greaterOrEqual" value="-0.360565"/>
										</Node>
										<Node score="1.1189134">
											<SimplePredicate field="V21" operator="greaterOrEqual" value="-0.30264294"/>
										</Node>
									</Node>
								</Node>
							</TreeModel>
						</Segment>
						<Segment id="15">
							<True/>
							<TreeModel functionName="regression" noTrueChildStrategy="returnLastPrediction" x-mathContext="float">
								<MiningSchema>
									<MiningField name="V1"/>
									<MiningField name="V2"/>
									<MiningField name="V10"/>
									<MiningField name="V13"/>
									<MiningField name="V16"/>
									<MiningField name="V21"/>
									<MiningField name="V22"/>
									<MiningField name="V27"/>
									<MiningField name="V6_year"/>
									<MiningField name="V7_year"/>
									<MiningField name="V8_year"/>
								</MiningSchema>
								<Node score="0.2918441">
									<True/>
									<Node score="0.2278628">
										<SimplePredicate field="V16" operator="greaterOrEqual" value="-0.5894636"/>
										<Node score="0.31252685">
											<SimplePredicate field="V27" operator="greaterOrEqual" value="-3.063943"/>
											<Node score="0.3220771">
												<SimplePredicate field="V22" operator="greaterOrEqual" value="2.8865192"/>
												<Node score="0.6429042">
													<SimplePredicate field="V8_year" operator="greaterOrEqual" value="-0.27742732"/>
													<Node score="0.34620154">
														<SimplePredicate field="V7_year" operator="greaterOrEqual" value="-0.10036125"/>
													</Node>
													<Node score="0.21537971">
														<SimplePredicate field="V10" operator="greaterOrEqual" value="-0.43754047"/>
													</Node>
												</Node>
											</Node>
											<Node score="0.31770915">
												<SimplePredicate field="V10" operator="greaterOrEqual" value="-1.3243235"/>
												<Node score="-0.042896375">
													<SimplePredicate field="V13" operator="greaterOrEqual" value="0.03195814"/>
													<Node score="0.30410022">
														<SimplePredicate field="V13" operator="greaterOrEqual" value="0.034637976"/>
													</Node>
												</Node>
											</Node>
											<Node score="0.22734095">
												<SimplePredicate field="V2" operator="greaterOrEqual" value="-0.7316592"/>
												<Node score="-0.13992703">
													<SimplePredicate field="V8_year" operator="greaterOrEqual" value="1.5726559"/>
												</Node>
											</Node>
											<Node score="0.07389845">
												<SimplePredicate field="V13" operator="greaterOrEqual" value="1.012779"/>
											</Node>
										</Node>
										<Node score="0.33349136">
											<SimplePredicate field="V1" operator="greaterOrEqual" value="-0.5048437"/>
										</Node>
										<Node score="0.29685855">
											<SimplePredicate field="V7_year" operator="greaterOrEqual" value="-0.10036125"/>
										</Node>
										<Node score="0.3393997">
											<SimplePredicate field="V8_year" operator="greaterOrEqual" value="-0.27742732"/>
											<Node score="0.7338284">
												<SimplePredicate field="V21" operator="greaterOrEqual" value="-0.30264294"/>
											</Node>
										</Node>
									</Node>
									<Node score="0.4385682">
										<SimplePredicate field="V16" operator="greaterOrEqual" value="-0.73032427"/>
										<Node score="0.2530094">
											<SimplePredicate field="V6_year" operator="greaterOrEqual" value="-0.37332016"/>
											<Node score="0.78640467">
												<SimplePredicate field="V13" operator="greaterOrEqual" value="-0.025658386"/>
											</Node>
										</Node>
									</Node>
								</Node>
							</TreeModel>
						</Segment>
						<Segment id="16">
							<True/>
							<TreeModel functionName="regression" noTrueChildStrategy="returnLastPrediction" x-mathContext="float">
								<MiningSchema>
									<MiningField name="COS_V6_day_"/>
									<MiningField name="SIN_V8_month_"/>
									<MiningField name="V1"/>
									<MiningField name="V2"/>
									<MiningField name="V4"/>
									<MiningField name="V9"/>
									<MiningField name="V13"/>
									<MiningField name="V16"/>
									<MiningField name="V19"/>
									<MiningField name="V26"/>
									<MiningField name="V6_year"/>
									<MiningField name="V7_year"/>
									<MiningField name="V8_year"/>
								</MiningSchema>
								<Node score="0.30633014">
									<True/>
									<Node score="0.23443744">
										<SimplePredicate field="V8_year" operator="greaterOrEqual" value="1.5726559"/>
										<Node score="0.28331923">
											<SimplePredicate field="COS_V6_day_" operator="greaterOrEqual" value="1.7929729"/>
											<Node score="-0.29266763">
												<SimplePredicate field="V4" operator="greaterOrEqual" value="3.7136393"/>
											</Node>
											<Node score="0.706884">
												<SimplePredicate field="V2" operator="greaterOrEqual" value="-0.7316592"/>
											</Node>
										</Node>
										<Node score="0.2610567">
											<SimplePredicate field="V16" operator="greaterOrEqual" value="1.6643071"/>
										</Node>
										<Node score="0.24124925">
											<SimplePredicate field="V26" operator="greaterOrEqual" value="-0.031985212"/>
										</Node>
										<Node score="0.21962179">
											<SimplePredicate field="V26" operator="greaterOrEqual" value="-0.093127"/>
											<Node score="-0.28530118">
												<SimplePredicate field="V13" operator="greaterOrEqual" value="-0.025658386"/>
											</Node>
										</Node>
									</Node>
									<Node score="0.38809386">
										<SimplePredicate field="V16" operator="greaterOrEqual" value="-0.5366409"/>
										<Node score="0.022489913">
											<SimplePredicate field="V16" operator="greaterOrEqual" value="1.5234464"/>
											<Node score="-0.11878325">
												<SimplePredicate field="V4" operator="greaterOrEqual" value="3.7136393"/>
												<Node score="-0.318744">
													<SimplePredicate field="V1" operator="greaterOrEqual" value="-0.5048437"/>
												</Node>
											</Node>
											<Node score="0.3000523">
												<SimplePredicate field="COS_V6_day_" operator="greaterOrEqual" value="1.7929729"/>
												<Node score="0.7886453">
													<SimplePredicate field="V1" operator="greaterOrEqual" value="0.2241193"/>
												</Node>
											</Node>
											<Node score="0.38358924">
												<SimplePredicate field="V16" operator="greaterOrEqual" value="1.6643071"/>
											</Node>
										</Node>
										<Node score="0.30704352">
											<SimplePredicate field="V8_year" operator="greaterOrEqual" value="-0.046166915"/>
											<Node score="2.4109318">
												<SimplePredicate field="V1" operator="greaterOrEqual" value="0.2241193"/>
												<Node score="0.5733753">
													<SimplePredicate field="SIN_V8_month_" operator="greaterOrEqual" value="1.2688203"/>
												</Node>
											</Node>
										</Node>
										<Node score="0.30510253">
											<SimplePredicate field="V16" operator="greaterOrEqual" value="-0.16688159"/>
										</Node>
										<Node score="0.546575">
											<SimplePredicate field="V8_year" operator="greaterOrEqual" value="-0.50868773"/>
										</Node>
									</Node>
									<Node score="-0.1925167">
										<SimplePredicate field="V8_year" operator="greaterOrEqual" value="-0.50868773"/>
										<Node score="0.5679336">
											<SimplePredicate field="V19" operator="greaterOrEqual" value="0.012029401"/>
											<Node score="0.23801778">
												<SimplePredicate field="V1" operator="greaterOrEqual" value="-1.9627699"/>
												<Node score="-0.062435538">
													<SimplePredicate field="V9" operator="greaterOrEqual" value="-1.3276578"/>
												</Node>
											</Node>
											<Node score="0.31758493">
												<SimplePredicate field="V7_year" operator="greaterOrEqual" value="-0.10036125"/>
											</Node>
										</Node>
										<Node score="-0.2801637">
											<SimplePredicate field="V6_year" operator="greaterOrEqual" value="0.79209054"/>
											<Node score="0.0068322006">
												<SimplePredicate field="V9" operator="greaterOrEqual" value="-1.0024703"/>
											</Node>
										</Node>
										<Node score="-0.31361058">
											<SimplePredicate field="V1" operator="greaterOrEqual" value="0.2241193"/>
										</Node>
									</Node>
									<Node score="0.38272738">
										<SimplePredicate field="V1" operator="greaterOrEqual" value="0.2241193"/>
										<Node score="-0.0149689205">
											<SimplePredicate field="V16" operator="greaterOrEqual" value="-0.5894636"/>
											<Node score="0.30117074">
												<SimplePredicate field="V26" operator="greaterOrEqual" value="-0.08002518"/>
											</Node>
										</Node>
									</Node>
								</Node>
							</TreeModel>
						</Segment>
						<Segment id="17">
							<True/>
							<TreeModel functionName="regression" noTrueChildStrategy="returnLastPrediction" x-mathContext="float">
								<MiningSchema>
									<MiningField name="V13"/>
									<MiningField name="V22"/>
									<MiningField name="V26"/>
									<MiningField name="V27"/>
								</MiningSchema>
								<Node score="0.30079693">
									<True/>
									<Node score="0.33770716">
										<SimplePredicate field="V26" operator="greaterOrEqual" value="-0.08875973"/>
										<Node score="0.31379563">
											<SimplePredicate field="V27" operator="greaterOrEqual" value="-3.063943"/>
											<Node score="0.34039512">
												<SimplePredicate field="V22" operator="greaterOrEqual" value="2.8865192"/>
											</Node>
											<Node score="0.30275744">
												<SimplePredicate field="V26" operator="greaterOrEqual" value="-0.08002518"/>
											</Node>
											<Node score="-0.03745499">
												<SimplePredicate field="V13" operator="greaterOrEqual" value="0.03195814"/>
												<Node score="0.29278842">
													<SimplePredicate field="V13" operator="greaterOrEqual" value="0.034637976"/>
												</Node>
											</Node>
										</Node>
									</Node>
								</Node>
							</TreeModel>
						</Segment>
						<Segment id="18">
							<True/>
							<TreeModel functionName="regression" noTrueChildStrategy="returnLastPrediction" x-mathContext="float">
								<MiningSchema>
									<MiningField name="V1"/>
									<MiningField name="V10"/>
									<MiningField name="V22"/>
									<MiningField name="V26"/>
									<MiningField name="V27"/>
								</MiningSchema>
								<Node score="-0.3651787">
									<True/>
									<Node score="0.29905885">
										<SimplePredicate field="V1" operator="greaterOrEqual" value="-1.9627699"/>
										<Node score="0.327892">
											<SimplePredicate field="V26" operator="greaterOrEqual" value="-0.08875973"/>
											<Node score="0.25295827">
												<SimplePredicate field="V27" operator="greaterOrEqual" value="-1.5363536"/>
												<Node score="-0.031324733">
													<SimplePredicate field="V10" operator="greaterOrEqual" value="-1.3278413"/>
													<Node score="0.33012092">
														<SimplePredicate field="V22" operator="greaterOrEqual" value="2.8865192"/>
													</Node>
													<Node score="0.30017886">
														<SimplePredicate field="V26" operator="greaterOrEqual" value="-0.08002518"/>
													</Node>
												</Node>
												<Node score="0.31190476">
													<SimplePredicate field="V10" operator="greaterOrEqual" value="-1.3279923"/>
												</Node>
												<Node score="-0.41703016">
													<SimplePredicate field="V10" operator="greaterOrEqual" value="-1.3311281"/>
												</Node>
											</Node>
										</Node>
									</Node>
									<Node score="0.3380783">
										<SimplePredicate field="V27" operator="greaterOrEqual" value="-2.3001482"/>
									</Node>
								</Node>
							</TreeModel>
						</Segment>
						<Segment id="19">
							<True/>
							<TreeModel functionName="regression" noTrueChildStrategy="returnLastPrediction" x-mathContext="float">
								<MiningSchema>
									<MiningField name="COS_V6_day_"/>
									<MiningField name="COS_V8_day_"/>
									<MiningField name="COS_V8_month_"/>
									<MiningField name="SIN_V8_month_"/>
									<MiningField name="V1"/>
									<MiningField name="V2"/>
									<MiningField name="V4"/>
									<MiningField name="V10"/>
									<MiningField name="V13"/>
									<MiningField name="V16"/>
									<MiningField name="V19"/>
									<MiningField name="V6_year"/>
									<MiningField name="V8_year"/>
								</MiningSchema>
								<Node score="0.3040081">
									<True/>
									<Node score="0.19366913">
										<SimplePredicate field="V8_year" operator="greaterOrEqual" value="1.5726559"/>
										<Node score="0.26911432">
											<SimplePredicate field="COS_V6_day_" operator="greaterOrEqual" value="1.7929729"/>
											<Node score="-0.2782264">
												<SimplePredicate field="V4" operator="greaterOrEqual" value="3.7136393"/>
											</Node>
											<Node score="0.55245686">
												<SimplePredicate field="V2" operator="greaterOrEqual" value="-0.7316592"/>
											</Node>
										</Node>
										<Node score="-0.30792525">
											<SimplePredicate field="V1" operator="greaterOrEqual" value="0.2241193"/>
											<Node score="0.15101188">
												<SimplePredicate field="V19" operator="greaterOrEqual" value="0.090576306"/>
												<Node score="-0.2326753">
													<SimplePredicate field="V19" operator="greaterOrEqual" value="0.13540576"/>
													<Node score="0.15079243">
														<SimplePredicate field="V10" operator="greaterOrEqual" value="1.782625"/>
													</Node>
												</Node>
											</Node>
										</Node>
										<Node score="0.32802957">
											<SimplePredicate field="V10" operator="greaterOrEqual" value="-0.13443851"/>
										</Node>
										<Node score="0.2917623">
											<SimplePredicate field="COS_V8_day_" operator="greaterOrEqual" value="1.2392703"/>
											<Node score="-0.1465903">
												<SimplePredicate field="COS_V8_month_" operator="greaterOrEqual" value="1.3362904"/>
											</Node>
										</Node>
										<Node score="-0.31272024">
											<SimplePredicate field="V10" operator="greaterOrEqual" value="-1.31322"/>
										</Node>
									</Node>
									<Node score="0.35792553">
										<SimplePredicate field="V16" operator="greaterOrEqual" value="-0.5366409"/>
										<Node score="0.015001006">
											<SimplePredicate field="V16" operator="greaterOrEqual" value="1.5234464"/>
											<Node score="0.29916236">
												<SimplePredicate field="V16" operator="greaterOrEqual" value="1.6643071"/>
												<Node score="0.44977292">
													<SimplePredicate field="V1" operator="greaterOrEqual" value="-0.5048437"/>
												</Node>
											</Node>
											<Node score="-0.30432582">
												<SimplePredicate field="V4" operator="greaterOrEqual" value="3.7136393"/>
											</Node>
											<Node score="0.4789731">
												<SimplePredicate field="COS_V6_day_" operator="greaterOrEqual" value="1.7929729"/>
											</Node>
										</Node>
										<Node score="0.3529078">
											<SimplePredicate field="V8_year" operator="greaterOrEqual" value="-0.50868773"/>
											<Node score="0.48221982">
												<SimplePredicate field="COS_V8_day_" operator="greaterOrEqual" value="0.9943627"/>
												<Node score="0.11070593">
													<SimplePredicate field="SIN_V8_month_" operator="greaterOrEqual" value="1.2688203"/>
												</Node>
											</Node>
											<Node score="0.7322094">
												<SimplePredicate field="V1" operator="greaterOrEqual" value="0.2241193"/>
											</Node>
										</Node>
									</Node>
									<Node score="-0.16495475">
										<SimplePredicate field="V8_year" operator="greaterOrEqual" value="-0.50868773"/>
										<Node score="0.50249827">
											<SimplePredicate field="V19" operator="greaterOrEqual" value="0.012029401"/>
											<Node score="0.48471624">
												<SimplePredicate field="COS_V6_day_" operator="greaterOrEqual" value="1.7929729"/>
												<Node score="-0.27639142">
													<SimplePredicate field="V4" operator="greaterOrEqual" value="3.7136393"/>
												</Node>
											</Node>
											<Node score="-0.058608506">
												<SimplePredicate field="V16" operator="greaterOrEqual" value="-0.5894636"/>
											</Node>
										</Node>
										<Node score="-0.28679365">
											<SimplePredicate field="V6_year" operator="greaterOrEqual" value="0.79209054"/>
											<Node score="0.0030901444">
												<SimplePredicate field="V2" operator="greaterOrEqual" value="-0.7316592"/>
											</Node>
										</Node>
										<Node score="-0.30654636">
											<SimplePredicate field="V1" operator="greaterOrEqual" value="0.2241193"/>
										</Node>
									</Node>
									<Node score="0.36054984">
										<SimplePredicate field="V1" operator="greaterOrEqual" value="0.2241193"/>
										<Node score="-0.00852285">
											<SimplePredicate field="V16" operator="greaterOrEqual" value="-0.5894636"/>
											<Node score="0.2996428">
												<SimplePredicate field="V13" operator="greaterOrEqual" value="0.034637976"/>
											</Node>
										</Node>
									</Node>
								</Node>
							</TreeModel>
						</Segment>
						<Segment id="20">
							<True/>
							<TreeModel functionName="regression" noTrueChildStrategy="returnLastPrediction" x-mathContext="float">
								<MiningSchema>
									<MiningField name="COS_V6_day_"/>
									<MiningField name="V1"/>
									<MiningField name="V4"/>
									<MiningField name="V10"/>
									<MiningField name="V13"/>
									<MiningField name="V16"/>
									<MiningField name="V19"/>
									<MiningField name="V8_year"/>
								</MiningSchema>
								<Node score="0.30987906">
									<True/>
									<Node score="0.007234695">
										<SimplePredicate field="V13" operator="greaterOrEqual" value="0.03195814"/>
										<Node score="0.0054472103">
											<SimplePredicate field="V4" operator="greaterOrEqual" value="3.7136393"/>
											<Node score="-0.3128749">
												<SimplePredicate field="V10" operator="greaterOrEqual" value="-1.325813"/>
											</Node>
										</Node>
										<Node score="0.33513814">
											<SimplePredicate field="COS_V6_day_" operator="greaterOrEqual" value="1.7929729"/>
											<Node score="0.19654669">
												<SimplePredicate field="V1" operator="greaterOrEqual" value="0.2241193"/>
												<Node score="0.80168927">
													<SimplePredicate field="V10" operator="greaterOrEqual" value="-1.3170819"/>
													<Node score="0.5120614">
														<SimplePredicate field="V16" operator="greaterOrEqual" value="-0.5014257"/>
													</Node>
												</Node>
											</Node>
										</Node>
										<Node score="-0.1477008">
											<SimplePredicate field="V8_year" operator="greaterOrEqual" value="1.5726559"/>
											<Node score="-0.30148888">
												<SimplePredicate field="V1" operator="greaterOrEqual" value="0.2241193"/>
												<Node score="-0.19052584">
													<SimplePredicate field="V19" operator="greaterOrEqual" value="0.061130755"/>
												</Node>
											</Node>
											<Node score="0.25554612">
												<SimplePredicate field="V10" operator="greaterOrEqual" value="-0.5270189"/>
											</Node>
										</Node>
										<Node score="0.35739344">
											<SimplePredicate field="V16" operator="greaterOrEqual" value="-0.5366409"/>
											<Node score="0.017924888">
												<SimplePredicate field="V16" operator="greaterOrEqual" value="1.5234464"/>
											</Node>
										</Node>
										<Node score="-0.10764235">
											<SimplePredicate field="V8_year" operator="greaterOrEqual" value="-0.50868773"/>
										</Node>
									</Node>
								</Node>
							</TreeModel>
						</Segment>
						<Segment id="21">
							<True/>
							<TreeModel functionName="regression" noTrueChildStrategy="returnLastPrediction" x-mathContext="float">
								<MiningSchema>
									<MiningField name="V1"/>
									<MiningField name="V13"/>
									<MiningField name="V16"/>
									<MiningField name="V22"/>
									<MiningField name="V26"/>
									<MiningField name="V27"/>
									<MiningField name="V6_year"/>
								</MiningSchema>
								<Node score="0.29715073">
									<True/>
									<Node score="0.32428926">
										<SimplePredicate field="V26" operator="greaterOrEqual" value="-0.08875973"/>
										<Node score="0.33467484">
											<SimplePredicate field="V27" operator="greaterOrEqual" value="-3.063943"/>
											<Node score="0.34344554">
												<SimplePredicate field="V16" operator="greaterOrEqual" value="-0.5894636"/>
												<Node score="-0.22323744">
													<SimplePredicate field="V13" operator="greaterOrEqual" value="0.034637976"/>
													<Node score="0.31367934">
														<SimplePredicate field="V1" operator="greaterOrEqual" value="-1.9627699"/>
													</Node>
												</Node>
												<Node score="-0.023245765">
													<SimplePredicate field="V1" operator="greaterOrEqual" value="-1.9627699"/>
													<Node score="0.32506618">
														<SimplePredicate field="V22" operator="greaterOrEqual" value="2.8865192"/>
													</Node>
												</Node>
											</Node>
											<Node score="0.21039172">
												<SimplePredicate field="V6_year" operator="greaterOrEqual" value="-0.37332016"/>
												<Node score="0.59934616">
													<SimplePredicate field="V16" operator="greaterOrEqual" value="-0.73032427"/>
												</Node>
											</Node>
										</Node>
									</Node>
								</Node>
							</TreeModel>
						</Segment>
						<Segment id="22">
							<True/>
							<TreeModel functionName="regression" noTrueChildStrategy="returnLastPrediction" x-mathContext="float">
								<MiningSchema>
									<MiningField name="V1"/>
									<MiningField name="V9"/>
									<MiningField name="V10"/>
									<MiningField name="V13"/>
									<MiningField name="V16"/>
									<MiningField name="V21"/>
									<MiningField name="V24"/>
									<MiningField name="V26"/>
									<MiningField name="V27"/>
								</MiningSchema>
								<Node score="0.30106044">
									<True/>
									<Node score="0.30539823">
										<SimplePredicate field="V10" operator="greaterOrEqual" value="-1.3277879"/>
										<Node score="0.29841906">
											<SimplePredicate field="V26" operator="greaterOrEqual" value="-0.08002518"/>
										</Node>
										<Node score="0.3166403">
											<SimplePredicate field="V13" operator="greaterOrEqual" value="0.03195814"/>
											<Node score="0.3364367">
												<SimplePredicate field="V27" operator="greaterOrEqual" value="-3.063943"/>
												<Node score="0.30816418">
													<SimplePredicate field="V13" operator="greaterOrEqual" value="0.034637976"/>
													<Node score="-0.1573771">
														<SimplePredicate field="V21" operator="greaterOrEqual" value="1.7424507"/>
													</Node>
												</Node>
												<Node score="-0.022197856">
													<SimplePredicate field="V1" operator="greaterOrEqual" value="-1.9627699"/>
												</Node>
											</Node>
										</Node>
									</Node>
									<Node score="0.30567214">
										<SimplePredicate field="V10" operator="greaterOrEqual" value="-1.3280683"/>
									</Node>
									<Node score="0.24525695">
										<SimplePredicate field="V10" operator="greaterOrEqual" value="-1.3311281"/>
										<Node score="-0.39444435">
											<SimplePredicate field="V26" operator="greaterOrEqual" value="-0.18920694"/>
											<Node score="-0.048129294">
												<SimplePredicate field="V24" operator="greaterOrEqual" value="1.2827315"/>
											</Node>
											<Node score="-0.03150137">
												<SimplePredicate field="V9" operator="greaterOrEqual" value="1.0440812"/>
											</Node>
										</Node>
									</Node>
									<Node score="0.30888152">
										<SimplePredicate field="V10" operator="greaterOrEqual" value="-1.3311758"/>
									</Node>
									<Node score="-0.936637">
										<SimplePredicate field="V1" operator="greaterOrEqual" value="-0.5048437"/>
										<Node score="0.0965645">
											<SimplePredicate field="V16" operator="greaterOrEqual" value="-0.41338778"/>
										</Node>
									</Node>
								</Node>
							</TreeModel>
						</Segment>
						<Segment id="23">
							<True/>
							<TreeModel functionName="regression" noTrueChildStrategy="returnLastPrediction" x-mathContext="float">
								<MiningSchema>
									<MiningField name="COS_V6_day_"/>
									<MiningField name="V1"/>
									<MiningField name="V4"/>
									<MiningField name="V16"/>
									<MiningField name="V22"/>
									<MiningField name="V26"/>
									<MiningField name="V8_year"/>
								</MiningSchema>
								<Node score="0.29488614">
									<True/>
									<Node score="-0.3010497">
										<SimplePredicate field="V4" operator="greaterOrEqual" value="3.7136393"/>
									</Node>
									<Node score="0.33381516">
										<SimplePredicate field="COS_V6_day_" operator="greaterOrEqual" value="1.7929729"/>
										<Node score="0.71471375">
											<SimplePredicate field="V1" operator="greaterOrEqual" value="0.2241193"/>
											<Node score="0.4386122">
												<SimplePredicate field="V8_year" operator="greaterOrEqual" value="-0.50868773"/>
											</Node>
										</Node>
									</Node>
									<Node score="0.36191535">
										<SimplePredicate field="V26" operator="greaterOrEqual" value="-0.08875973"/>
										<Node score="-0.011810601">
											<SimplePredicate field="V16" operator="greaterOrEqual" value="-0.5894636"/>
											<Node score="0.31757578">
												<SimplePredicate field="V22" operator="greaterOrEqual" value="2.8865192"/>
											</Node>
											<Node score="0.29527447">
												<SimplePredicate field="V26" operator="greaterOrEqual" value="-0.08002518"/>
											</Node>
										</Node>
									</Node>
								</Node>
							</TreeModel>
						</Segment>
						<Segment id="24">
							<True/>
							<TreeModel functionName="regression" noTrueChildStrategy="returnLastPrediction" x-mathContext="float">
								<MiningSchema>
									<MiningField name="SIN_V8_day_"/>
									<MiningField name="SIN_V8_month_"/>
									<MiningField name="V3"/>
									<MiningField name="V9"/>
									<MiningField name="V10"/>
									<MiningField name="V13"/>
									<MiningField name="V16"/>
									<MiningField name="V19"/>
									<MiningField name="V8_year"/>
								</MiningSchema>
								<Node score="0.3009484">
									<True/>
									<Node score="0.26368904">
										<SimplePredicate field="V13" operator="greaterOrEqual" value="0.03195814"/>
										<Node score="0.35834688">
											<SimplePredicate field="V16" operator="greaterOrEqual" value="1.6643071"/>
										</Node>
										<Node score="-0.13059734">
											<SimplePredicate field="V8_year" operator="greaterOrEqual" value="1.5726559"/>
											<Node score="0.31201163">
												<SimplePredicate field="V19" operator="greaterOrEqual" value="0.05154442"/>
												<Node score="0.12845016">
													<SimplePredicate field="V16" operator="greaterOrEqual" value="1.629092"/>
													<Node score="-0.16463117">
														<SimplePredicate field="V10" operator="greaterOrEqual" value="-1.1933582"/>
													</Node>
												</Node>
												<Node score="-0.001735344">
													<SimplePredicate field="SIN_V8_month_" operator="greaterOrEqual" value="-1.1107467"/>
												</Node>
											</Node>
											<Node score="-0.30145523">
												<SimplePredicate field="V9" operator="greaterOrEqual" value="-1.3442162"/>
												<Node score="-0.11785053">
													<SimplePredicate field="SIN_V8_day_" operator="greaterOrEqual" value="1.095418"/>
												</Node>
											</Node>
											<Node score="0.17854562">
												<SimplePredicate field="V10" operator="greaterOrEqual" value="-1.3104526"/>
											</Node>
										</Node>
										<Node score="-0.018539686">
											<SimplePredicate field="V3" operator="greaterOrEqual" value="-0.14477308"/>
											<Node score="0.30311573">
												<SimplePredicate field="V13" operator="greaterOrEqual" value="0.034637976"/>
											</Node>
											<Node score="0.054336417">
												<SimplePredicate field="V16" operator="greaterOrEqual" value="-0.5366409"/>
											</Node>
										</Node>
										<Node score="0.6427467">
											<SimplePredicate field="V10" operator="greaterOrEqual" value="-1.3144294"/>
											<Node score="0.2383488">
												<SimplePredicate field="V19" operator="greaterOrEqual" value="1.4946817"/>
											</Node>
										</Node>
									</Node>
								</Node>
							</TreeModel>
						</Segment>
						<Segment id="25">
							<True/>
							<TreeModel functionName="regression" noTrueChildStrategy="returnLastPrediction" x-mathContext="float">
								<MiningSchema>
									<MiningField name="COS_V6_day_"/>
									<MiningField name="COS_V8_month_"/>
									<MiningField name="COS_V23_day_"/>
									<MiningField name="SIN_V7_month_"/>
									<MiningField name="SIN_V8_day_"/>
									<MiningField name="SIN_V8_month_"/>
									<MiningField name="V1"/>
									<MiningField name="V2"/>
									<MiningField name="V4"/>
									<MiningField name="V9"/>
									<MiningField name="V10"/>
									<MiningField name="V16"/>
									<MiningField name="V19"/>
									<MiningField name="V24"/>
									<MiningField name="V6_year"/>
									<MiningField name="V8_year"/>
								</MiningSchema>
								<Node score="0.29779655">
									<True/>
									<Node score="0.27604988">
										<SimplePredicate field="V8_year" operator="greaterOrEqual" value="-0.73994815"/>
										<Node score="0.41248876">
											<SimplePredicate field="V19" operator="greaterOrEqual" value="0.072624184"/>
											<Node score="0.25889972">
												<SimplePredicate field="V9" operator="greaterOrEqual" value="-1.3485739"/>
												<Node score="-0.041114815">
													<SimplePredicate field="V4" operator="greaterOrEqual" value="3.7136393"/>
													<Node score="-0.2914592">
														<SimplePredicate field="V10" operator="greaterOrEqual" value="-1.2793459"/>
													</Node>
												</Node>
												<Node score="0.3692853">
													<SimplePredicate field="COS_V6_day_" operator="greaterOrEqual" value="1.7929729"/>
												</Node>
												<Node score="0.003550621">
													<SimplePredicate field="V10" operator="greaterOrEqual" value="-1.3256952"/>
												</Node>
											</Node>
											<Node score="-0.06658552">
												<SimplePredicate field="V19" operator="greaterOrEqual" value="1.8727698"/>
												<Node score="0.15582632">
													<SimplePredicate field="V10" operator="greaterOrEqual" value="-0.25576344"/>
												</Node>
											</Node>
											<Node score="0.0067829085">
												<SimplePredicate field="V24" operator="greaterOrEqual" value="0.004030943"/>
											</Node>
											<Node score="0.18243928">
												<SimplePredicate field="SIN_V8_day_" operator="greaterOrEqual" value="1.346222"/>
											</Node>
										</Node>
										<Node score="-0.19107334">
											<SimplePredicate field="V8_year" operator="greaterOrEqual" value="-0.50868773"/>
											<Node score="-0.30979306">
												<SimplePredicate field="V6_year" operator="greaterOrEqual" value="-0.14023805"/>
												<Node score="-0.002165626">
													<SimplePredicate field="V2" operator="greaterOrEqual" value="-0.7316592"/>
													<Node score="-0.27754256">
														<SimplePredicate field="V8_year" operator="greaterOrEqual" value="1.5726559"/>
													</Node>
												</Node>
												<Node score="0.29725814">
													<SimplePredicate field="V10" operator="greaterOrEqual" value="-0.52627337"/>
												</Node>
											</Node>
											<Node score="-0.29849234">
												<SimplePredicate field="V1" operator="greaterOrEqual" value="0.2241193"/>
											</Node>
											<Node score="0.19598845">
												<SimplePredicate field="V10" operator="greaterOrEqual" value="-0.81382495"/>
											</Node>
										</Node>
										<Node score="0.32145897">
											<SimplePredicate field="V16" operator="greaterOrEqual" value="-0.5366409"/>
										</Node>
										<Node score="-0.235854">
											<SimplePredicate field="SIN_V8_month_" operator="greaterOrEqual" value="0.13538368"/>
											<Node score="0.019614045">
												<SimplePredicate field="COS_V8_month_" operator="greaterOrEqual" value="0.032727838"/>
											</Node>
										</Node>
										<Node score="0.0024144496">
											<SimplePredicate field="V1" operator="greaterOrEqual" value="0.2241193"/>
										</Node>
									</Node>
									<Node score="0.32398912">
										<SimplePredicate field="V16" operator="greaterOrEqual" value="-0.5366409"/>
									</Node>
									<Node score="0.006116194">
										<SimplePredicate field="V1" operator="greaterOrEqual" value="0.2241193"/>
										<Node score="0.32885563">
											<SimplePredicate field="V19" operator="greaterOrEqual" value="-0.32504338"/>
											<Node score="0.095288835">
												<SimplePredicate field="SIN_V7_month_" operator="greaterOrEqual" value="0.2710351"/>
												<Node score="0.30089223">
													<SimplePredicate field="V24" operator="greaterOrEqual" value="1.507826"/>
												</Node>
											</Node>
											<Node score="0.0232466">
												<SimplePredicate field="COS_V23_day_" operator="greaterOrEqual" value="-2.2148585"/>
											</Node>
										</Node>
										<Node score="-0.033896286">
											<SimplePredicate field="V24" operator="greaterOrEqual" value="0.11147556"/>
											<Node score="0.40431464">
												<SimplePredicate field="V24" operator="greaterOrEqual" value="1.8791375"/>
											</Node>
										</Node>
										<Node score="0.12256002">
											<SimplePredicate field="COS_V8_month_" operator="greaterOrEqual" value="0.6245498"/>
										</Node>
									</Node>
								</Node>
							</TreeModel>
						</Segment>
						<Segment id="26">
							<True/>
							<TreeModel functionName="regression" noTrueChildStrategy="returnLastPrediction" x-mathContext="float">
								<MiningSchema>
									<MiningField name="V10"/>
									<MiningField name="V16"/>
									<MiningField name="V22"/>
									<MiningField name="V26"/>
									<MiningField name="V27"/>
								</MiningSchema>
								<Node score="0.31115726">
									<True/>
									<Node score="0.29240286">
										<SimplePredicate field="V27" operator="greaterOrEqual" value="-3.063943"/>
										<Node score="0.34594873">
											<SimplePredicate field="V26" operator="greaterOrEqual" value="-0.08875973"/>
											<Node score="0.31098032">
												<SimplePredicate field="V22" operator="greaterOrEqual" value="2.8865192"/>
											</Node>
											<Node score="0.18601681">
												<SimplePredicate field="V16" operator="greaterOrEqual" value="-0.5894636"/>
												<Node score="0.29258394">
													<SimplePredicate field="V26" operator="greaterOrEqual" value="-0.08002518"/>
												</Node>
												<Node score="-0.015532428">
													<SimplePredicate field="V10" operator="greaterOrEqual" value="-1.3277879"/>
												</Node>
											</Node>
										</Node>
									</Node>
								</Node>
							</TreeModel>
						</Segment>
						<Segment id="27">
							<True/>
							<TreeModel functionName="regression" noTrueChildStrategy="returnLastPrediction" x-mathContext="float">
								<MiningSchema>
									<MiningField name="COS_V6_day_"/>
									<MiningField name="V1"/>
									<MiningField name="V4"/>
									<MiningField name="V13"/>
									<MiningField name="V16"/>
									<MiningField name="V6_year"/>
									<MiningField name="V7_year"/>
									<MiningField name="V8_year"/>
								</MiningSchema>
								<Node score="0.29649526">
									<True/>
									<Node score="-0.29205024">
										<SimplePredicate field="V4" operator="greaterOrEqual" value="3.7136393"/>
									</Node>
									<Node score="0.39071444">
										<SimplePredicate field="COS_V6_day_" operator="greaterOrEqual" value="1.7929729"/>
									</Node>
									<Node score="0.29872644">
										<SimplePredicate field="V13" operator="greaterOrEqual" value="0.030618219"/>
										<Node score="-6.425754E-4">
											<SimplePredicate field="V8_year" operator="greaterOrEqual" value="-0.50868773"/>
											<Node score="0.29043442">
												<SimplePredicate field="V7_year" operator="greaterOrEqual" value="-0.10036125"/>
												<Node score="-0.011092798">
													<SimplePredicate field="V6_year" operator="greaterOrEqual" value="1.0251727"/>
												</Node>
											</Node>
											<Node score="-0.24991666">
												<SimplePredicate field="V1" operator="greaterOrEqual" value="0.2241193"/>
											</Node>
										</Node>
										<Node score="0.31848872">
											<SimplePredicate field="V16" operator="greaterOrEqual" value="-0.5366409"/>
										</Node>
										<Node score="0.0026654752">
											<SimplePredicate field="V1" operator="greaterOrEqual" value="0.2241193"/>
										</Node>
									</Node>
								</Node>
							</TreeModel>
						</Segment>
						<Segment id="28">
							<True/>
							<TreeModel functionName="regression" noTrueChildStrategy="returnLastPrediction" x-mathContext="float">
								<MiningSchema>
									<MiningField name="V3"/>
									<MiningField name="V10"/>
									<MiningField name="V12"/>
									<MiningField name="V13"/>
									<MiningField name="V16"/>
									<MiningField name="V22"/>
									<MiningField name="V26"/>
									<MiningField name="V27"/>
								</MiningSchema>
								<Node score="0.3039866">
									<True/>
									<Node score="0.34271765">
										<SimplePredicate field="V16" operator="greaterOrEqual" value="1.6643071"/>
									</Node>
									<Node score="0.24063186">
										<SimplePredicate field="V27" operator="greaterOrEqual" value="-3.063943"/>
										<Node score="0.28867358">
											<SimplePredicate field="V3" operator="greaterOrEqual" value="-0.14477308"/>
											<Node score="-0.010591607">
												<SimplePredicate field="V26" operator="greaterOrEqual" value="-0.08875973"/>
												<Node score="-0.099107556">
													<SimplePredicate field="V13" operator="greaterOrEqual" value="0.034637976"/>
													<Node score="0.29887664">
														<SimplePredicate field="V12" operator="greaterOrEqual" value="-0.21681671"/>
													</Node>
												</Node>
												<Node score="0.30334583">
													<SimplePredicate field="V22" operator="greaterOrEqual" value="2.8865192"/>
												</Node>
											</Node>
										</Node>
										<Node score="0.5673173">
											<SimplePredicate field="V10" operator="greaterOrEqual" value="-1.3184062"/>
										</Node>
									</Node>
								</Node>
							</TreeModel>
						</Segment>
						<Segment id="29">
							<True/>
							<TreeModel functionName="regression" noTrueChildStrategy="returnLastPrediction" x-mathContext="float">
								<MiningSchema>
									<MiningField name="V1"/>
									<MiningField name="V4"/>
									<MiningField name="V9"/>
									<MiningField name="V12"/>
									<MiningField name="V13"/>
									<MiningField name="V16"/>
									<MiningField name="V26"/>
								</MiningSchema>
								<Node score="0.33364332">
									<True/>
									<Node score="-0.012136948">
										<SimplePredicate field="V16" operator="greaterOrEqual" value="-0.5894636"/>
										<Node score="0.291455">
											<SimplePredicate field="V1" operator="greaterOrEqual" value="-1.9627699"/>
											<Node score="-0.0058438713">
												<SimplePredicate field="V13" operator="greaterOrEqual" value="0.03195814"/>
												<Node score="0.2879996">
													<SimplePredicate field="V26" operator="greaterOrEqual" value="-0.08002518"/>
												</Node>
												<Node score="0.2933102">
													<SimplePredicate field="V13" operator="greaterOrEqual" value="0.034637976"/>
												</Node>
												<Node score="-0.28375486">
													<SimplePredicate field="V4" operator="greaterOrEqual" value="3.7136393"/>
												</Node>
											</Node>
										</Node>
										<Node score="0.3400876">
											<SimplePredicate field="V12" operator="greaterOrEqual" value="-0.21681671"/>
										</Node>
										<Node score="-0.14270526">
											<SimplePredicate field="V9" operator="greaterOrEqual" value="-1.3384211"/>
										</Node>
									</Node>
								</Node>
							</TreeModel>
						</Segment>
						<Segment id="30">
							<True/>
							<TreeModel functionName="regression" noTrueChildStrategy="returnLastPrediction" x-mathContext="float">
								<MiningSchema>
									<MiningField name="COS_V7_month_"/>
									<MiningField name="COS_V8_day_"/>
									<MiningField name="COS_V8_month_"/>
									<MiningField name="SIN_V8_month_"/>
									<MiningField name="V1"/>
									<MiningField name="V3"/>
									<MiningField name="V10"/>
									<MiningField name="V16"/>
									<MiningField name="V19"/>
									<MiningField name="V22"/>
									<MiningField name="V26"/>
									<MiningField name="V27"/>
									<MiningField name="V8_year"/>
								</MiningSchema>
								<Node score="0.2849879">
									<True/>
									<Node score="0.29654145">
										<SimplePredicate field="V10" operator="greaterOrEqual" value="-1.3277879"/>
										<Node score="0.32806394">
											<SimplePredicate field="V27" operator="greaterOrEqual" value="-3.063943"/>
											<Node score="-0.028799599">
												<SimplePredicate field="V8_year" operator="greaterOrEqual" value="1.5726559"/>
												<Node score="-0.123738654">
													<SimplePredicate field="V1" operator="greaterOrEqual" value="0.2241193"/>
													<Node score="0.08262261">
														<SimplePredicate field="SIN_V8_month_" operator="greaterOrEqual" value="-1.5227857"/>
														<Node score="-0.23411985">
															<SimplePredicate field="COS_V8_day_" operator="greaterOrEqual" value="-1.3380849"/>
														</Node>
													</Node>
													<Node score="0.28049457">
														<SimplePredicate field="V10" operator="greaterOrEqual" value="1.097928"/>
													</Node>
												</Node>
												<Node score="-0.1973459">
													<SimplePredicate field="COS_V8_month_" operator="greaterOrEqual" value="0.27233917"/>
													<Node score="0.2078308">
														<SimplePredicate field="V10" operator="greaterOrEqual" value="-0.5363928"/>
													</Node>
												</Node>
												<Node score="0.2401966">
													<SimplePredicate field="V19" operator="greaterOrEqual" value="-0.05560892"/>
												</Node>
											</Node>
											<Node score="0.52071697">
												<SimplePredicate field="V1" operator="greaterOrEqual" value="-1.9627699"/>
												<Node score="0.29493138">
													<SimplePredicate field="V22" operator="greaterOrEqual" value="2.8865192"/>
												</Node>
												<Node score="-0.0030842985">
													<SimplePredicate field="V3" operator="greaterOrEqual" value="-2.7290633"/>
												</Node>
											</Node>
										</Node>
									</Node>
									<Node score="0.2959519">
										<SimplePredicate field="V10" operator="greaterOrEqual" value="-1.3311758"/>
										<Node score="0.19012788">
											<SimplePredicate field="V10" operator="greaterOrEqual" value="-1.3311281"/>
											<Node score="0.2921469">
												<SimplePredicate field="V10" operator="greaterOrEqual" value="-1.3280683"/>
											</Node>
											<Node score="-0.35488296">
												<SimplePredicate field="V26" operator="greaterOrEqual" value="-0.18920694"/>
												<Node score="-0.12144352">
													<SimplePredicate field="COS_V7_month_" operator="greaterOrEqual" value="0.8018474"/>
												</Node>
											</Node>
										</Node>
									</Node>
									<Node score="-0.8102044">
										<SimplePredicate field="V1" operator="greaterOrEqual" value="-0.5048437"/>
										<Node score="-0.12607639">
											<SimplePredicate field="V16" operator="greaterOrEqual" value="-0.41338778"/>
											<Node score="0.029745461">
												<SimplePredicate field="V10" operator="greaterOrEqual" value="-1.3317637"/>
											</Node>
										</Node>
									</Node>
								</Node>
							</TreeModel>
						</Segment>
						<Segment id="31">
							<True/>
							<TreeModel functionName="regression" noTrueChildStrategy="returnLastPrediction" x-mathContext="float">
								<MiningSchema>
									<MiningField name="V1"/>
									<MiningField name="V2"/>
									<MiningField name="V9"/>
									<MiningField name="V10"/>
									<MiningField name="V16"/>
									<MiningField name="V19"/>
									<MiningField name="V24"/>
									<MiningField name="V26"/>
									<MiningField name="V8_year"/>
								</MiningSchema>
								<Node score="0.28488588">
									<True/>
									<Node score="0.28701177">
										<SimplePredicate field="V26" operator="greaterOrEqual" value="-0.08875973"/>
										<Node score="0.3262458">
											<SimplePredicate field="V16" operator="greaterOrEqual" value="1.6643071"/>
